compound,latent_1,latent_2,latent_3,latent_4,latent_5,latent_6,latent_7,latent_8,latent_9,latent_10,latent_11,latent_12,latent_13,latent_14,latent_15,latent_16,latent_17,latent_18,latent_19,latent_20,latent_21,latent_22,latent_23,latent_24,latent_25,latent_26,latent_27,latent_28,latent_29,latent_30,latent_31,latent_32,latent_33,latent_34,latent_35,latent_36,latent_37,latent_38,latent_39,latent_40,latent_41,latent_42,latent_43,latent_44,latent_45,latent_46,latent_47,latent_48,latent_49,latent_50,latent_51,latent_52,latent_53,latent_54,latent_55,latent_56,latent_57,latent_58,latent_59,latent_60,latent_62,latent_63,latent_64,latent_65,latent_66,latent_67,latent_68,latent_69,latent_70,latent_71,latent_72,latent_73,latent_74,latent_75,latent_76,latent_77,latent_78,latent_79,latent_80,latent_81,latent_82,latent_83,latent_84,latent_85,latent_86,latent_87,latent_88,latent_89,latent_91,latent_92,latent_93,latent_94,latent_95,latent_96,latent_97,latent_98,latent_99,latent_100,latent_101,latent_102,latent_104,latent_105,latent_106,latent_107,latent_108,latent_109,latent_110,latent_111,latent_112,latent_113,latent_114,latent_115,latent_116,latent_117,latent_118,latent_120,latent_121,latent_122,latent_123,latent_124,latent_125,latent_126,latent_127,latent_128,latent_129,latent_130,latent_131,latent_132,latent_133,latent_134,latent_135,latent_136,latent_138,latent_139,latent_140,latent_141,latent_142,latent_144,latent_145,latent_149,latent_151,latent_154,latent_155,latent_156,latent_157,latent_158,latent_159,latent_162,latent_163,latent_166,latent_167,latent_169,latent_170,latent_171,latent_172,latent_173,latent_174,latent_175,latent_179,latent_180,latent_181,latent_184,latent_185,latent_186,latent_188,latent_190,latent_191,latent_192,latent_195,latent_197,latent_198,latent_199,latent_200
leupeptin,3.659599643588845,-0.5325245833114984,0.1904753215677395,0.2234848053888748,0.1837889809475623,0.0259761699419399,0.1286515259477105,0.0504263497050265,0.1433336251289603,0.0447386787786131,-0.3295759512205292,-0.3948778855898213,-0.3453263554815293,-0.4154601276868464,0.0544064883638936,0.1873342944498409,-0.2052290799318515,0.2929551433994401,1.1060712599622011,-1.0971690834640264,-0.299245208710667,-0.8322390965776666,0.4509999751796801,0.4712653726694148,-0.1119481394231937,0.0579551223033379,-0.6068487671639612,-0.970665542354274,-1.1219373513342652,0.9981531278774922,-0.1740906958444196,0.0671736629602505,0.0068276820428379,-0.1010152544624812,0.4556787206252439,0.8771973028274975,1.3721478601297463,0.0886068924556183,0.3864731829132196,-0.8229854443272004,0.3864731829132196,-0.3566951582823834,-0.1492019514912081,-0.3525751893584227,0.2716769220219638,0.8102590787646433,-0.6521507009710387,0.1426722213253672,0.0575359655152623,0.9693809808134422,0.4508209680382669,-0.5176134057785946,-0.6963164160898253,-0.8488412911446099,-1.0361166997780047,-0.7631037008781422,-1.1484323350780017,-0.3605526113018772,0.9881438447331002,0.3375418217225303,1.732532037500581,-0.3778869936243956,-0.640034545508978,-0.72988290345403,0.1747925401258801,0.397432140496795,0.3371548902660835,-0.0393175448270831,1.8810748038856968,-0.4851764772755721,-0.5762048456960428,1.684265959361637,-0.7760235783950403,-0.433011048210842,-0.2825426519677055,0.1158527159507536,0.1011363667751481,-0.417668522470274,-0.8014525533045522,-1.5668155463771258,-0.2706345082225371,0.6493067322233285,4.408058532276019,1.281750011597358,0.9016469358628284,0.6212108648908681,-0.4544666095446599,-1.4745008087204146,-0.5907258671515986,1.6526362886550694,-0.7071036402876192,-0.471273169209515,-0.4406372527733674,0.0831567253876111,0.2817859376764169,0.9561855030452324,0.7857043628932302,-1.3741121092913426,-0.1767956821067766,-0.6651623304469073,0.5946877103605502,-0.8659477268523371,-0.3317810206197654,1.0557297401149794,-0.108034848531837,0.358013654819474,-0.115308667018576,-1.2356397018994152,0.1910949840771462,1.403247761522746,-0.3214841074360675,-0.2835748816950121,-0.6101833026271526,-0.5467464249523649,-0.2501593283565828,-0.652256541930572,-0.4264394645381124,-0.3030457633656632,-0.2835748816950121,-0.2835748816950121,1.4479584021055243,1.492327315412584,-0.1435992628787478,-0.1767956821067766,-0.101015254455221,-0.7355962172195849,3.0897547144657387,0.5724716295782902,-0.1767956821067766,-0.2052290799318516,-0.101015254455221,-0.4264394645381124,3.8957503447088753,-0.2540706746549266,-0.199532002897127,-0.3503789166371986,1.9005500085101308,-0.5432801752553075,-0.2966173619504273,-1.0274770440663206,-0.6902775901042241,-0.101015254455221,-0.4561245320378142,-0.7161338046043288,-0.101015254455221,9.798479682156444,-0.4025464901437672,-0.3890765377414685,-0.101015254455221,-0.3873915831529057,-0.3313012426364054,-0.3716329619084387,-0.4082908602798601,-0.101015254455221,-0.101015254455221,-0.1767956821067766,-0.1767956821067766,-0.1767956821067766,-0.3146102220792177,-0.318129103702299,-0.318129103702299,-0.3163727581225843,-0.1435992628787478,-0.1989769753883445,-0.2835748816950121,-0.1934826842541162,-0.1435992628787478,-0.101015254455221,-0.1360885371684969,-0.1767956821067766,0.9459741886286476,-0.101015254455221,-1.6525289653698274
taxol,-0.9220121489082828,2.444738144229913,2.0526616459612947,1.995587604686087,1.9598317111438155,2.078366473924,1.9565918981983907,1.843093979862883,2.061394791812739,1.9193280008328475,2.2225849547628185,2.1089432908501027,2.199964480702213,2.094873086181365,2.297907860237752,1.5808536434250169,4.8228833783985126,1.068626631988627,-0.7153153699955841,-0.1937044275356775,1.412929590090458,4.267815481276835,-0.9929305927208134,-0.5877668900425826,0.893122019180965,1.9883608171152485,-1.0032019365646905,-1.0630914802202092,-0.9191662524039376,-0.0295269545684076,-2.3492346379850777,2.0927179614539586,2.024922829243627,-0.1010152543760376,1.775170511674774,1.2360765153482571,0.3456850814245646,2.051543136387536,1.4824783458824984,0.1462505719674447,1.4824783458824984,0.4850007395573978,-0.4962119517521672,0.4905371826190197,-1.1077619750086332,-0.151045957861038,0.650719415897329,1.9418515739775295,1.988097436376916,0.1384829972590631,1.4029859436363306,2.86412751197489,0.0535628012376788,1.5978189009780894,2.1703918237455047,-0.7631037008781422,0.9487049724557408,1.566764983657248,0.3085782532675296,1.266729982644103,0.9249784599735564,2.365292663797143,0.3716329619084387,1.681190957394114,1.9468272572641128,1.0033164464107625,0.687048373333204,2.203678482122472,-0.7346450224284796,1.403668072649986,1.8187657605433023,1.5959465094086296,0.7232465602211888,-0.433011048210842,-0.2825426519677055,2.319055756660423,0.7641335041248555,0.9833999693738436,1.0468114986649255,2.052159082628626,2.028314254549603,1.0200294994904142,-0.1365948457777169,-0.4117213885754318,0.8219785385539662,1.2264419761467773,-0.4503369712279342,2.874452295411018,-0.5907258671515986,-0.5174341374293645,-0.7071036402876192,-0.471273169209515,-0.4406372527733674,1.2382198323861051,1.8960218553080184,0.9051537721100436,1.6002801774566284,2.812092112379343,-0.1767956821067766,-0.6651623304469073,1.2303583240507074,1.1801099164646127,-0.3317810206197654,2.6556153814062933,0.877864597985333,-1.5628506946617635,-2.689528307761358,2.514087356398317,-2.2207065482868864,1.0381446497360045,-0.3214841074360675,-0.2835748816950121,0.8365416245694833,0.4738469016253829,-0.2501593283565828,-0.652256541930572,-0.4264394645381124,-0.3030457633656632,-0.2835748816950121,-0.2835748816950121,2.615859006272943,2.6530263385112605,-0.1435992628787478,-0.1767956821067766,-0.101015254455221,-0.7355962172195849,-0.0480272753543897,-0.3948080203988208,-0.1767956821067766,-0.2052290799318516,-0.101015254455221,-0.4264394645381124,-0.2540706746549266,-0.2540706746549266,-0.199532002897127,-0.3503789166371986,0.2522853993597518,-0.5432801752553075,-0.2966173619504273,2.220676192014305,1.7607080559180206,-0.101015254455221,4.013895881932765,1.7903345115108218,-0.101015254455221,-0.101015254455221,-0.4025464901437672,-0.3890765377414685,-0.101015254455221,1.2632334233246925,1.8332002092547768,-0.3716329619084387,-0.4082908602798601,-0.101015254455221,-0.101015254455221,-0.1767956821067766,-0.1767956821067766,-0.1767956821067766,-0.3146102220792177,-0.318129103702299,-0.318129103702299,-0.3163727581225843,-0.1435992628787478,-0.1989769753883445,-0.2835748816950121,-0.1934826842541162,-0.1435992628787478,-0.101015254455221,-0.1360885371684969,-0.1767956821067766,-0.1985377926751482,-0.101015254455221,-1.5135918152161747
camptothecin,-0.3906155730826084,0.4747388618305682,-0.2576543244347805,-0.265388936502634,-0.3061716780021286,-0.1655561527301219,-0.1937919528353469,-0.2657951177699574,-0.1779456915115368,-0.2692590116143596,-0.0046411630663367,-0.0760975917474093,0.0051088032940531,-0.0698379277104744,-0.4441412484402661,-0.1232194924457975,-0.2052290799318515,-0.0491654176251945,0.268715961642386,0.3486578759803961,-0.9213251382753512,0.1335947976214486,0.5884792358194771,-0.9407776442799152,-0.2259166013268071,-0.2954761511902594,0.5952350423478842,1.0050658382359556,1.3079593522056987,-0.6966175344017109,-0.4134269224877276,-0.1860193743514629,-0.2661217180985399,-0.1010152544624812,-0.4828401141841091,-0.6724716825675022,-0.6867049956967932,-0.2432057031192292,0.4910236354849094,0.1741215468679692,0.4910236354849094,0.5261861266462656,-0.1920135617618151,0.531791879818357,-0.5796327032358044,-0.178688872586771,0.0707952631205925,-0.228551962222653,-0.2957470801592218,-0.6924149862953158,-0.3109110124401841,-0.5176134057785946,0.803442018565183,0.3744888049167397,0.0327194747298317,1.5030830471842194,0.9487049724557408,-0.1464062118619744,-0.7107701339308264,-0.4058087070147278,-0.8920170894622492,-0.3778869936243956,-0.640034545508978,-0.72988290345403,-0.3022937298728749,-0.4435215346856241,-0.4053497254332939,-0.0849216605692343,-0.7346450224284796,1.292421540290304,0.0225378058637935,-0.4705196232053437,0.7528660759838754,-0.433011048210842,-0.2825426519677055,0.0086929816067464,-0.3931055095166949,-0.2413914630502171,0.6325343781074513,1.0181663314841254,-0.4854338019223664,-0.217529722987965,-0.1365948457777169,0.0378387257462639,-0.802034797891333,-0.3189786902335401,-0.8895126266173158,0.8473290951826367,0.4921557676301848,-0.4931676662729929,-0.7071036402876192,-0.471273169209515,-0.4406372527733674,-0.6919517067111487,0.9024134076392416,-0.8137896810696428,-0.1480711493920099,0.3141424911637465,-0.1767956821067766,1.5810664010525322,-0.3856222055174919,-0.4119468803736288,-0.3317810206197654,0.2188330427180453,-0.3679336642774947,-0.1749792943846943,0.0341401860806079,0.8199917687390831,-0.2306819164960643,-0.399805210668203,-0.3214841074360675,-0.2835748816950121,-0.1279416602282739,-0.5467464249523649,-0.2501593283565828,0.652256541930572,-0.4264394645381124,-0.3030457633656632,-0.2835748816950121,-0.2835748816950121,-0.3038925041456038,-0.2487212192354307,-0.1435992628787478,-0.1767956821067766,-0.101015254455221,0.5871272559459072,-0.8324727728094219,-0.3948080203988208,-0.1767956821067766,-0.2052290799318516,-0.101015254455221,-0.4264394645381124,-0.2540706746549266,-0.2540706746549266,-0.199532002897127,-0.3503789166371986,-0.5718469052154376,-0.5432801752553075,-0.2966173619504273,0.0552407012938881,1.7607080559180206,-0.101015254455221,0.6613805714548306,-0.2148401413812986,-0.101015254455221,-0.101015254455221,-0.4025464901437672,-0.3890765377414685,-0.101015254455221,-0.3873915831529057,-0.3313012426364054,2.6633695603438112,-0.4082908602798601,-0.101015254455221,-0.101015254455221,-0.1767956821067766,-0.1767956821067766,-0.1767956821067766,1.8876613324753069,-0.318129103702299,-0.318129103702299,-0.3163727581225843,-0.1435992628787478,-0.1989769753883445,5.892055875218586,-0.1934826842541162,-0.1435992628787478,-0.101015254455221,-0.1360885371684969,-0.1767956821067766,-0.1985377926751482,-0.101015254455221,0.3075703700928335
cdk1-inhibitor-iii,0.01471398652452,0.3313615523304101,-0.3146323266384445,-0.3328909123570958,-0.3738237315611799,-0.2109982403624461,-0.3077612446150993,-0.3775652079255893,-0.4314774851715846,-0.5170446409006744,-0.3846609972883324,-0.4489195819916368,-0.3208391669705561,-0.3913092519757179,-0.5961534031777782,-0.4553881652546677,-0.2052290799318515,-0.4658552350065335,0.8120948224041785,-0.7341872397897258,-0.364554726376315,0.5497855678436814,0.5884792358194771,-0.6098639766843126,-0.2713424022131384,-0.3633326288506959,0.3474773106164351,0.7689226453367246,1.010495927036826,-1.2050487330854718,-0.659802449914663,-0.2493176336793913,-0.3343590681338844,-0.1010152544624812,-0.4887738761033863,-0.5188167794062727,-0.5585742878270324,-0.3001024946773499,0.2724517758718826,0.737489980091559,0.2724517758718826,0.5012679341366354,-0.1599083854391379,0.5068317529529365,0.6064131519678404,-0.7374474238879849,0.9289681519618144,-0.2277149231542676,-0.3635766659962937,-0.6924149862953158,-0.5013440075597968,-0.5176134057785946,-0.6963164160898253,-0.8488412911446099,1.1015556492376684,1.5030830471842194,1.6477507416336548,-0.3605526113018772,-0.7107701339308264,-0.5916463391990423,-0.4882403006987368,-0.3778869936243956,-0.640034545508978,-0.72988290345403,-0.3704489113012685,-0.4507749640210834,-0.1070560238302973,-0.7974134097705441,0.108673737458939,-0.4851764772755721,0.0225378058637935,-1.1593416674100017,0.7528660759838754,-0.433011048210842,-0.2825426519677055,0.2257111661149302,-0.1606679725009748,-0.2047195647989587,-0.0826328127126385,0.5011699559118752,-0.2764570012551288,0.521615981031951,-0.1365948457777169,-0.4470562745581135,-0.802034797891333,-0.8298300987646996,-0.4503369712279342,0.732005733096867,1.01406784313715,-1.0495217595717563,-0.7071036402876192,0.3386635025592372,-0.4406372527733674,-0.6454646869095269,-0.702479067844683,-0.8137896810696428,-0.5415224603621294,1.0499000572119497,-0.1767956821067766,2.679965557929228,-0.4879857394559649,-0.1236682442628726,-0.3317810206197654,-0.3780887631150121,-0.3935813059389639,-0.0024219047818847,0.2065905371534092,1.242658073607799,0.0194135590353039,-0.3931103885121363,-0.3214841074360675,-0.2835748816950121,-0.6101833026271526,-0.5467464249523649,-0.2501593283565828,0.0,-0.4264394645381124,1.111167799007432,-0.2835748816950121,-0.2835748816950121,-0.3038925041456038,-0.2487212192354307,-0.1435992628787478,-0.1767956821067766,-0.101015254455221,-0.0742344806368388,-0.8324727728094219,-0.3948080203988208,-0.1767956821067766,-0.2052290799318516,-0.101015254455221,-0.4264394645381124,-0.2540706746549266,-0.2540706746549266,-0.199532002897127,-0.3503789166371986,-0.5718469052154376,-0.5432801752553075,-0.2966173619504273,1.1379584466540968,0.7803137975091228,-0.101015254455221,0.6613805714548306,-0.2148401413812986,9.798479682156444,-0.101015254455221,-0.4025464901437672,-0.3890765377414685,-0.101015254455221,-0.3873915831529057,-0.3313012426364054,-0.3716329619084387,-0.4082908602798601,-0.101015254455221,-0.101015254455221,-0.1767956821067766,-0.1767956821067766,-0.1767956821067766,-0.3146102220792177,1.2407035044389665,1.2407035044389665,-0.3163727581225843,-0.1435992628787478,-0.1989769753883445,2.804240496761787,-0.1934826842541162,-0.1435992628787478,-0.101015254455221,-0.1360885371684969,-0.1767956821067766,-0.1985377926751482,-0.101015254455221,0.42005316097702
33-diaminobenzidine,0.468501796711857,-0.724609858633983,-0.802823541746569,-0.8422237810103337,-0.884289004219366,-0.8287450589780809,-0.8638776736565852,-0.9229505695466372,-0.8361409646017921,-0.9125366360160956,-0.8084255753912563,-0.8646577597811816,-0.8425144145799074,-0.9058196891759642,-0.7581599604702343,-1.14134039678564,-0.2052290799318515,-1.2922287371165784,0.2346635920767357,-0.3712053961154249,-0.9213251382753512,-0.1648090254314367,0.272197270111419,-0.9407776442799152,0.8330451648968842,-0.901171550234136,-2.1576286435571057,-2.6846715508145227,-2.7431436217376604,-1.5440028655413125,0.0300490268807558,-0.8190019676307468,-0.9095219336456194,-0.1010152544624812,-0.8802855411547309,-0.8980806937149429,-0.7044038010328822,-0.8384100766431611,-2.4213847195276803,-0.5182994614741869,-2.4213847195276803,-2.0120674837173613,1.097335917815948,-2.0107333096311755,1.4870029878275568,0.5080662537130326,-0.0682940874517878,-0.6690494990703172,-0.9014745424668896,1.2463469753315686,-0.6917770026794096,-0.5176134057785946,-0.6963164160898253,-0.8488412911446099,1.1015556492376684,-0.7631037008781422,0.2496592032778265,-0.57469901074178,0.3085782532675296,-0.7774839713833569,-0.8920170894622492,-0.3778869936243956,-0.640034545508978,-0.72988290345403,-0.8475351813000236,-0.0311836337347109,-0.8223910367673727,-0.7974134097705441,-0.7346450224284796,-0.4851764772755721,-0.5762048456960428,-1.1593416674100017,-0.7760235783950403,-0.433011048210842,-0.2825426519677055,-0.5325031217536278,0.0196491675728068,-1.1974623385973169,0.2415455346413106,-0.5328227952326253,-1.1779587592483158,0.1715242239396373,-0.1365948457777169,-0.9762118552996952,-0.802034797891333,-0.9703349702644836,0.6350111566696931,-0.1424186869298227,0.4673415077447242,1.245708479057277,3.121656609333539,-0.471273169209515,-0.4406372527733674,-1.162042855820913,-1.0253262513710033,-0.8137896810696428,-1.074684679060795,0.1176418568850812,-0.1767956821067766,0.4560890631948391,-0.1238211130743989,-0.8659477268523371,-0.3317810206197654,-1.140092678541072,-0.8878769667612038,3.784230075324794,0.3480136013226043,0.7359779715450643,-0.256584256483938,-0.8841611290595309,-0.3214841074360675,-0.2835748816950121,-0.6101833026271526,-0.5467464249523649,7.2931065728572975,-0.652256541930572,-0.4264394645381124,-0.3030457633656632,-0.2835748816950121,-0.2835748816950121,-0.8878428062293131,-0.829070730784769,-0.1435992628787478,-0.1767956821067766,-0.101015254455221,-0.7355962172195849,-0.8324727728094219,3.4743105795096234,-0.1767956821067766,-0.2052290799318516,-0.101015254455221,-0.4264394645381124,-0.2540706746549266,-0.2540706746549266,-0.199532002897127,-0.3503789166371986,-0.5718469052154376,4.086411753007313,-0.2966173619504273,1.1379584466540968,-0.6902775901042241,-0.101015254455221,-0.4561245320378142,-0.7161338046043288,-0.101015254455221,-0.101015254455221,-0.4025464901437672,-0.3890765377414685,-0.101015254455221,-0.3873915831529057,-0.3313012426364054,-0.3716329619084387,-0.4082908602798601,-0.101015254455221,-0.101015254455221,-0.1767956821067766,-0.1767956821067766,-0.1767956821067766,-0.3146102220792177,-0.318129103702299,-0.318129103702299,-0.3163727581225843,-0.1435992628787478,-0.1989769753883445,-0.2835748816950121,-0.1934826842541162,-0.1435992628787478,-0.101015254455221,-0.1360885371684969,-0.1767956821067766,-0.1985377926751482,-0.101015254455221,0.3490084960090607
nystatin,-0.3608110449023811,1.2789131720803453,2.3526636359643227,2.274981309360263,2.2398465941663805,2.258339096693692,2.3475871427761628,2.226544408082925,2.165820197784026,2.021386660058717,1.8808842133512649,1.7737146027428283,1.4737930032313842,1.3786750183833565,3.055202532319908,3.414616094775221,-0.2052290799318515,1.2506155193470898,-1.0228408609226134,-0.2593288779470756,0.2466695265080117,1.2665042423077129,1.585548770056784,-0.9407776442799152,0.9730063527728204,2.314615403986201,-1.4694127220808582,-1.4508233679160432,-0.950559246298701,0.8358878517018239,-0.5471736373766358,2.282612739437744,2.258747923100016,-0.101015254345154,2.694540160991025,3.074616723652376,2.513365602233974,2.307002466314928,0.3348820545058424,0.4310538844127154,0.3348820545058424,0.2490435937368897,-0.1130196954885065,0.254182948972007,-1.074809818545291,-0.4335188066806458,-0.3297694602423103,2.2836296041934787,2.314207990622164,2.6311769479222,1.9742849289951687,-0.5176134057785946,1.5533212358926871,0.9861538529474144,-1.0361166997780047,-0.7631037008781422,-1.1484323350780017,2.2092041819769563,3.0268406191298123,1.8242428791970464,-0.4882403006987368,-0.3778869936243956,1.3833004693258557,0.8774996704447326,2.423913527262868,2.7704805940788133,0.3217528471126077,0.7388806509707541,-0.7346450224284796,-0.4851764772755721,0.6212804574236298,0.218302420999314,-0.7760235783950403,-0.433011048210842,-0.2825426519677055,2.576619852449854,0.6702522346904661,0.6030540945384457,3.7908948705006345,-0.015826419660375,2.8296188691015454,-0.5441149468193179,-0.1365948457777169,-0.9762118552996952,1.4754959444828382,2.8726659364890423,-0.8895126266173158,1.193902756250835,-0.5907258671515986,-0.4757141999144981,-0.7071036402876192,-0.471273169209515,-0.4406372527733674,2.611577990370011,0.9196185772579882,1.0083886982781276,1.7606395081692876,1.614143296504829,-0.1767956821067766,-0.6651623304469073,2.3662931611647804,0.6991736458291798,-0.3317810206197654,0.0011077491858959,4.300254562419406,0.486022837533712,-2.680500076030572,-1.0694767773839826,0.1703472053080381,0.7501684012328864,-0.3214841074360675,2.804240496761787,4.212233121361634,4.045923544647501,-0.2501593283565828,-0.652256541930572,-0.4264394645381124,-0.3030457633656632,2.804240496761787,2.804240496761787,0.2800577979381055,-0.2487212192354307,-0.1435992628787478,-0.1767956821067766,-0.101015254455221,-0.7355962172195849,-0.8324727728094219,0.5724716295782902,-0.1767956821067766,-0.2052290799318516,-0.101015254455221,-0.4264394645381124,-0.2540706746549266,-0.2540706746549266,-0.199532002897127,5.781252124513778,-0.5718469052154376,-0.5432801752553075,-0.2966173619504273,-1.0274770440663206,0.2901166683046738,-0.101015254455221,0.6613805714548306,1.2890408482877918,-0.101015254455221,-0.101015254455221,-0.4025464901437672,-0.3890765377414685,-0.101015254455221,-0.3873915831529057,-0.3313012426364054,2.6633695603438112,-0.4082908602798601,-0.101015254455221,-0.101015254455221,-0.1767956821067766,-0.1767956821067766,-0.1767956821067766,-0.3146102220792177,-0.318129103702299,-0.318129103702299,-0.3163727581225843,-0.1435992628787478,-0.1989769753883445,-0.2835748816950121,-0.1934826842541162,-0.1435992628787478,-0.101015254455221,-0.1360885371684969,-0.1767956821067766,-0.1985377926751482,-0.101015254455221,-1.3079388224345876
quercetin,0.3127847658407378,0.1072326127280935,-0.4325513768610403,-0.6099356260718755,-0.6514844010932032,-0.4529733186013096,-0.6391434749403718,-0.7025529408581399,-0.6319598279559371,-0.7129831571335741,-0.6244462398897129,-0.6841631227948742,-0.6226475331664245,-0.6889725111656767,-0.1426988106213522,0.95974606963374,-0.2052290799318515,0.9677175315749088,-1.0228408609226134,0.4860071920559725,-0.3762777036571305,-0.8322390965776666,-0.9929305927208134,-0.9407776442799152,-0.6509565908646414,-0.5037272526012008,-1.0189441189327686,-0.6264689490678199,-0.2611518692238182,-1.5440028655413125,-0.6668417506982901,-0.4392124116631765,-0.4613389016936227,-0.1010152544624812,-0.6114980343959155,-0.743224273298332,-0.6606654221330288,-0.5291017537498409,0.1432491496172832,0.7345350946490825,0.1432491496172832,-0.3959831126970649,-0.1233272798984487,-0.3919292607299443,0.2127885927440795,-0.7345167174235637,0.0387192698868811,-0.550693936988018,-0.5040921017247072,0.4154489917771894,-0.1204780173205713,-0.5176134057785946,-0.6963164160898253,-0.8488412911446099,1.1015556492376684,0.3699896731530386,0.9487049724557408,0.0677401875779284,0.6483610490003149,-0.2199710748304132,-0.8920170894622492,-0.3778869936243956,-0.640034545508978,-0.72988290345403,-0.5067592741580557,0.3081568144851587,0.5958567857170223,1.3980832319474146,0.915285406563605,-0.4851764772755721,-0.5762048456960428,-0.4705196232053437,-0.7760235783950403,-0.433011048210842,-0.2825426519677055,-1.0379793136659998,-0.6391242463994719,-0.1728951875617001,-1.178621572506411,-0.015826419660375,0.2389751303896021,-0.6082829830082371,-0.1365948457777169,-0.9762118552996952,-0.802034797891333,-0.9703349702644836,-0.8895126266173158,0.0097155506501676,3.2196866892974545,-0.5062253477943167,-0.7071036402876192,3.5784101896342464,-0.4406372527733674,-0.5801492925336675,-1.0253262513710033,-0.8137896810696428,-1.074684679060795,0.2465505623826022,-0.1767956821067766,1.5812842992616594,0.1913569011289363,-0.5041316349147579,-0.3317810206197654,-0.5877981696816049,1.202612380136879,-0.5998138966444754,-0.8570032680804633,-0.0597638226738528,-0.256584256483938,-0.8841611290595309,-0.3214841074360675,-0.2835748816950121,-0.6101833026271526,-0.5467464249523649,-0.2501593283565828,-0.652256541930572,-0.4264394645381124,6.768022048499812,-0.2835748816950121,-0.2835748816950121,-0.8878428062293131,-0.829070730784769,-0.1435992628787478,-0.1767956821067766,-0.101015254455221,-0.7355962172195849,-0.8324727728094219,-0.3948080203988208,-0.1767956821067766,-0.2052290799318516,-0.101015254455221,-0.4264394645381124,-0.2540706746549266,-0.2540706746549266,-0.199532002897127,-0.3503789166371986,-0.5718469052154376,-0.5432801752553075,-0.2966173619504273,1.1379584466540968,-0.200080460899775,-0.101015254455221,-0.4561245320378142,-0.7161338046043288,-0.101015254455221,-0.101015254455221,-0.4025464901437672,-0.3890765377414685,-0.101015254455221,-0.3873915831529057,-0.3313012426364054,-0.3716329619084387,-0.4082908602798601,-0.101015254455221,-0.101015254455221,-0.1767956821067766,-0.1767956821067766,-0.1767956821067766,-0.3146102220792177,5.917201328862762,5.917201328862762,-0.3163727581225843,-0.1435992628787478,-0.1989769753883445,-0.2835748816950121,-0.1934826842541162,-0.1435992628787478,-0.101015254455221,-0.1360885371684969,-0.1767956821067766,-0.1985377926751482,-0.101015254455221,-0.1379093112917774
cathepsin-inhibitor-i,-0.7655102377510855,0.4026741960557322,0.3292425339615266,0.2340422195275376,0.1943698674729259,0.4351115795645168,0.2157962574609465,0.1358894981173706,-0.0390548631687468,-0.1335160706356758,-0.1766142543222264,-0.2448133912312299,-0.3091510778630972,-0.3797816898299721,0.2314571137812538,0.1873342944498409,-0.2052290799318515,-0.0488855592910378,-1.0228408609226134,-0.3712053961154249,0.16876973096109,0.1689060101416783,2.4556046672508005,-0.2347561358052502,-0.2376483524420375,0.2789111586797586,-1.2885102512928155,-1.3361252456507025,-0.9400667092557072,-1.0225349694554038,-1.5889901533533914,0.3836649595998924,0.309080120698002,-0.1010152544624809,0.2707936070800137,0.6769738975358436,0.602077226434545,0.3447037389515965,0.3875209723499558,0.0209708842497712,0.3875209723499558,1.1000122943267536,-0.3815121228824921,1.106583728724236,0.1143929968778239,-0.026791397810433,0.2279886404416939,0.3385516986403284,0.2786156925402687,-0.1384829972590631,0.2603879729186541,-0.5176134057785946,-0.6963164160898253,-0.8488412911446099,2.1703918237455047,-0.7631037008781422,0.9487049724557408,-0.1464062118619744,-0.0312045424652557,0.1517041895382158,0.7230900655918002,-0.3778869936243956,-0.640034545508978,-0.72988290345403,0.2656661153637382,-0.1630787257455502,-0.0239750867166472,-0.7974134097705441,0.1372615863429124,1.403668072649986,0.6337115590353436,0.218302420999314,0.7232465602211888,1.0566717246552972,-0.2825426519677055,2.247615933764419,-0.4452259064586335,-0.8257120046231065,-0.4227524547697173,-0.015826419660375,0.1823358065733337,0.246150776588491,-0.1365948457777169,0.7345981702508732,-0.802034797891333,-0.5833526498015278,-0.4544666095446599,2.4665292434100303,-0.5907258671515986,0.5630844616015434,0.0998194566813007,-0.471273169209515,-0.4406372527733674,-0.3310328367309286,1.1687097335133654,-0.8137896810696428,-0.4118496944041966,2.355272806149718,-0.1767956821067766,-0.6651623304469073,0.0928060044590518,-0.5136658890484262,-0.3317810206197654,1.3041753883939995,-0.6696011579162849,0.1454959696466968,-0.5778886500463515,2.8688499303267707,-0.3675308979996183,-0.9859239314335668,-0.3214841074360675,-0.2835748816950121,-0.6101833026271526,-0.5467464249523649,-0.2501593283565828,-0.652256541930572,-0.4264394645381124,-0.3030457633656632,-0.2835748816950121,-0.2835748816950121,1.4479584021055243,1.492327315412584,-0.1435992628787478,-0.1767956821067766,-0.101015254455221,-0.7355962172195849,1.5208637195556745,-0.3948080203988208,5.59852993338126,-0.2052290799318516,-0.101015254455221,-0.4264394645381124,-0.2540706746549266,3.895750344708875,-0.199532002897127,-0.3503789166371986,1.9005500085101308,-0.5432801752553075,-0.2966173619504273,2.220676192014305,-0.6902775901042241,-0.101015254455221,-0.4561245320378142,-0.2148401413812986,-0.101015254455221,-0.101015254455221,-0.4025464901437672,-0.3890765377414685,-0.101015254455221,-0.3873915831529057,-0.3313012426364054,-0.3716329619084387,-0.4082908602798601,-0.101015254455221,-0.101015254455221,-0.1767956821067766,-0.1767956821067766,-0.1767956821067766,-0.3146102220792177,-0.318129103702299,-0.318129103702299,-0.3163727581225843,-0.1435992628787478,-0.1989769753883445,-0.2835748816950121,-0.1934826842541162,-0.1435992628787478,-0.101015254455221,-0.1360885371684969,-0.1767956821067766,-0.1985377926751482,-0.101015254455221,-0.2520021871351442
az235,-0.2970207772508498,0.2268302086904534,-0.185024542231655,-0.1602181299968031,-0.1130013213668347,-0.2019987203917542,-0.2636941745135732,0.0011890547361484,-0.2734440827243676,0.055087375144095,-0.40846363476814,-0.1664628860643693,-0.3997921924508229,-0.251069882889189,-0.491177550128103,-0.5581499145951555,-0.2052290799318515,-0.5607600629010082,-0.3796641891856684,0.0258276848102665,-0.3592604121292483,0.8435136836979266,0.0074186295094658,1.6276186746237946,-1.00494892407655,-0.1913668210811714,-0.0929808791283632,0.0604930666390325,0.1144332635651621,-0.6024636087195329,-0.23744440289706,-0.1860193743514629,-0.1781005543633646,-0.1010152544624812,-0.2663997913825264,-0.3641767085361865,-0.3231765552571484,-0.1950970248597535,-0.0986050851470566,-1.3410447944419113,-0.0986050851470566,-0.4932829720811806,0.2528840076516114,-0.4893928642106741,-1.8312452762026048,1.324079298157836,0.52494370356453,-0.1107550135817824,-0.1913577315396372,-0.6924149862953158,-0.1204780173205713,-0.5176134057785946,-0.6963164160898253,-0.8488412911446099,0.0327194747298317,1.5030830471842194,0.9487049724557408,0.0677401875779284,-0.7107701339308264,-0.0341334426460987,-0.0844635119352245,-0.3778869936243956,-0.640034545508978,-0.72988290345403,-0.2341385484444814,-0.6624856439658957,-0.4547414703557421,0.4539520805687987,0.1433367841071345,-0.4851764772755721,-0.5762048456960428,-1.1593416674100017,2.877878853712549,-0.433011048210842,-0.2825426519677055,-1.0379793136659998,0.6216158338926223,0.2026088005197893,0.2247302911464266,-0.015826419660375,-0.7797101353004815,0.0870208054107287,-0.1365948457777169,1.096149887229427,-0.802034797891333,-0.3268669075540713,-0.1202563150677444,0.3023036889068876,0.4921557676301848,-0.5174341374293645,1.251195010946919,-0.471273169209515,-0.4406372527733674,-0.3827870870461378,-0.3548552034003144,-0.1031619617856351,-0.281385215848042,0.5776003328234122,-0.1767956821067766,0.4823851423849639,-0.2891509291759284,0.8370825090940266,-0.3317810206197654,-0.5276564390779238,-0.7517616157579095,-0.0819960456511294,0.9536964613940444,0.3796848837100601,0.6166533890445381,0.6016287127054636,-1.710270523101001,-0.2835748816950121,-0.6101833026271526,-0.5467464249523649,-0.2501593283565828,1.956769625791716,-0.4264394645381124,-0.3030457633656632,-0.2835748816950121,-0.2835748816950121,-0.8878428062293131,-0.829070730784769,-0.1435992628787478,-0.1767956821067766,-0.101015254455221,1.9098507291113995,-0.0480272753543897,-0.3948080203988208,-0.1767956821067766,-0.2052290799318516,-0.101015254455221,-0.4264394645381124,-0.2540706746549266,-0.2540706746549266,-0.199532002897127,-0.3503789166371986,-0.5718469052154376,1.7715657888760026,3.3369453219423075,0.0552407012938881,-0.6902775901042241,-0.101015254455221,-0.4561245320378142,-0.7161338046043288,-0.101015254455221,-0.101015254455221,-0.4025464901437672,2.543961977540371,-0.101015254455221,-0.3873915831529057,-0.3313012426364054,-0.3716329619084387,-0.4082908602798601,-0.101015254455221,-0.101015254455221,-0.1767956821067766,-0.1767956821067766,-0.1767956821067766,-0.3146102220792177,-0.318129103702299,-0.318129103702299,-0.3163727581225843,-0.1435992628787478,-0.1989769753883445,-0.2835748816950121,-0.1934826842541162,-0.1435992628787478,9.798479682156444,-0.1360885371684969,-0.1767956821067766,-0.1985377926751482,-0.101015254455221,1.2414266925080222
h-7,0.0142764521753889,-0.301377496003279,-0.5916115982187464,-0.5731879900650697,-0.5268893407612424,-0.5569110381915716,-0.5423447962148293,-0.3521540422790074,-0.5532134708963687,-0.2508232218332159,-0.4877834411941974,0.0113380313229197,-0.451436656209682,0.118832625234011,-0.4861284904462485,-0.5581499145951555,-0.2052290799318515,-0.8881612359606431,0.3330663938759808,-0.3943314299939006,-0.9213251382753512,1.0875241865030918,-0.315665985037632,-0.2568532224469801,-1.00494892407655,-0.5531745515387629,0.8842857293679086,1.3828949468747247,1.583388449584284,-0.3334523924847388,0.6354288942726545,-0.5658089303190332,-0.5486293163386788,-0.1010152544624812,-0.6226305860720174,-0.6549628187409665,-0.6158293711161429,-0.571630624209378,0.4424843178858012,-1.4609295680264482,0.4424843178858012,-0.3497589615822821,-0.401248203484199,-0.3456273198638303,-2.0576307271000287,1.4429830891066346,-0.2311953107304168,-0.5203402570870644,-0.5531606972200301,-0.6924149862953158,-0.5013440075597968,-0.5176134057785946,0.0535628012376788,-0.2371762431139351,0.0327194747298317,0.3699896731530386,0.2496592032778265,-0.57469901074178,-0.7107701339308264,-0.4058087070147278,-0.690128695080493,-0.3778869936243956,0.3716329619084387,0.0738083834953513,-0.5749144555864493,-0.8834087476072215,-0.8223910367673727,-0.7974134097705441,0.7448044270053734,-0.4851764772755721,-0.5762048456960428,-0.4433029464097441,0.5401150985001462,0.7372979017993809,-0.2825426519677055,-0.5325031217536278,-0.6062734479949742,1.6303877695722888,-0.8730152592662235,-0.015826419660375,-0.7797101353004815,0.0421903761926261,-0.1365948457777169,0.5745246588520584,-0.802034797891333,-0.6078766505536394,0.4156254246006517,-0.1328684671030108,-0.5907258671515986,-0.5174341374293645,-0.7071036402876192,-0.471273169209515,-0.4406372527733674,-0.1733338725270835,-0.3421755353584331,-0.8137896810696428,-0.8610789828660911,0.3289746717940082,-0.1767956821067766,0.4203708886255983,-0.6065240981702691,0.9833193295061132,-0.3317810206197654,-0.9394268848121003,-0.6779750711424677,-0.4599740606208496,0.3480136013226043,0.1485711368254455,0.3633104035856877,0.0338719271000179,-1.8216101407377607,-0.2835748816950121,-0.6101833026271526,-0.5467464249523649,-0.2501593283565828,0.0,-0.4264394645381124,-0.3030457633656632,-0.2835748816950121,-0.2835748816950121,-0.8878428062293131,-0.829070730784769,-0.1435992628787478,-0.1767956821067766,-0.101015254455221,0.5871272559459072,-0.0480272753543897,-0.3948080203988208,-0.1767956821067766,-0.2052290799318516,-0.101015254455221,-0.4264394645381124,-0.2540706746549266,-0.2540706746549266,-0.199532002897127,-0.3503789166371986,-0.5718469052154376,-0.5432801752553075,-0.2966173619504273,0.0552407012938881,-0.200080460899775,-0.101015254455221,-0.4561245320378142,-0.7161338046043288,-0.101015254455221,-0.101015254455221,-0.4025464901437672,-0.3890765377414685,-0.101015254455221,-0.3873915831529057,-0.3313012426364054,-0.3716329619084387,-0.4082908602798601,-0.101015254455221,-0.101015254455221,-0.1767956821067766,-0.1767956821067766,-0.1767956821067766,-0.3146102220792177,-0.318129103702299,-0.318129103702299,-0.3163727581225843,6.892764618179895,-0.1989769753883445,2.804240496761787,-0.1934826842541162,6.892764618179895,-0.101015254455221,-0.1360885371684969,-0.1767956821067766,-0.1985377926751482,-0.101015254455221,1.982617956057663
mevinolin-lovastatin,-0.4819885084749737,-0.4048255524480587,0.0067576265505282,0.1659677704965955,0.1261440679530175,0.0023397322855228,0.2899780448558376,0.20863984108744,0.3654831150256959,0.2618532676632917,0.4147198670850904,0.3353204443980185,0.4066414414911492,0.3261799669005807,-0.5924987096871853,-0.1232194924457975,-0.2052290799318515,1.5436198532227026,0.3134316345161867,0.5785113275698751,-0.4205960705000715,-0.8322390965776666,-0.2709653087705666,1.188893017348316,-0.2457205467735439,-0.0416725605161961,0.7423708600428061,0.9806372320739662,1.00720344127506,0.9981531278774922,0.5509572848691336,0.0038754036323221,-0.0906006583124739,-0.1010152544624812,0.0454489659597949,0.0654087906800049,-0.0299120410969279,0.0397545304541814,0.3040854436926407,0.2193125715332818,0.3040854436926407,0.2236585278673765,-0.2615020985387373,0.2287551630543395,0.468050934468468,-0.2235101120895281,0.8117296963434031,0.0589136866738611,-0.0419158048612365,-0.6924149862953158,-0.5013440075597968,1.7368805393903952,0.0535628012376788,0.9861538529474144,-1.0361166997780047,-0.7631037008781422,-1.1484323350780017,-0.3605526113018772,-0.7107701339308264,-0.5916463391990423,0.1174248824465316,-0.3778869936243956,0.3716329619084387,0.0738083834953513,0.0612005710785574,-0.4353096191724624,-0.0517987481935105,-0.7974134097705441,-0.7346450224284796,-0.4851764772755721,0.6212804574236298,0.218302420999314,-0.7760235783950403,-0.433011048210842,-0.2825426519677055,0.8752735037776227,0.5414233072154304,-0.4830792890165405,-0.0273147066753175,-0.015826419660375,-0.0345002623905531,-0.5441149468193179,-0.1365948457777169,-0.9762118552996952,2.0672102452087184,0.7450863723965553,-0.8895126266173158,-0.6034383914771085,-0.5907258671515986,-1.0495217595717563,-0.7071036402876192,-0.471273169209515,-0.4406372527733674,-0.3562493787913713,0.2739242102053474,2.223174284509974,0.9682789471887804,-0.3986386047274874,-0.1767956821067766,-0.6651623304469073,-0.4848663089634832,-0.088277714253617,-0.3317810206197654,-0.0388050767435826,-0.4536850367074709,-0.2600064878125031,0.6831603534430256,-0.8991520802216957,1.5560944229316664,1.122776751994789,-0.3214841074360675,-0.2835748816950121,-0.1279416602282739,-0.0364497616634909,-0.2501593283565828,-0.652256541930572,-0.4264394645381124,-0.3030457633656632,-0.2835748816950121,-0.2835748816950121,0.2800577979381055,0.3316282923139075,-0.1435992628787478,-0.1767956821067766,-0.101015254455221,-0.7355962172195849,-0.8324727728094219,-0.3948080203988208,-0.1767956821067766,-0.2052290799318516,-0.101015254455221,-0.4264394645381124,-0.2540706746549266,-0.2540706746549266,-0.199532002897127,1.489110395708095,-0.5718469052154376,-0.5432801752553075,-0.2966173619504273,-1.0274770440663206,-0.200080460899775,-0.101015254455221,1.7788856749474755,0.2864535218417315,-0.101015254455221,-0.101015254455221,-0.4025464901437672,-0.3890765377414685,-0.101015254455221,-0.3873915831529057,-0.3313012426364054,2.6633695603438112,-0.4082908602798601,-0.101015254455221,-0.101015254455221,-0.1767956821067766,-0.1767956821067766,-0.1767956821067766,-0.3146102220792177,-0.318129103702299,-0.318129103702299,-0.3163727581225843,-0.1435992628787478,-0.1989769753883445,-0.2835748816950121,-0.1934826842541162,-0.1435992628787478,-0.101015254455221,-0.1360885371684969,-0.1767956821067766,-0.1985377926751482,-0.101015254455221,0.9368116178024604
ag-1478,-0.041719332285966,-0.1269366634711221,-0.4746024511490861,-0.4821956999820973,-0.4422051993381456,-0.4091430866886383,-0.5522677163324202,-0.5503024531500317,-0.6464784010992461,-0.6367388621169947,-0.6092394518687686,-0.6055344924092466,-0.6050451832450814,-0.6057828124895336,-0.7581599604702343,-1.14134039678564,-0.2052290799318515,-1.2922287371165784,0.21199902057006,-0.0147507757014515,-0.3528317490954996,-0.0500093657919347,0.9047612015275354,0.0740604451486225,0.6839836534487892,-0.4448036845309895,-0.3682672477188621,0.0712268481344523,0.3898623609437476,-1.1203101999715117,-0.0896190864408981,-0.4392124116631765,-0.4151068425920722,-0.1010152544624812,-0.5505148017086204,-0.4972453977440113,-0.5100757111707933,-0.4162355856892639,-2.316245839269232,0.5665020375405345,-2.316245839269232,-1.066250079928175,1.2713662397673984,-1.0633242075874827,1.5407243345825234,-0.5678586265123476,0.7586782446522756,-0.3545148877959488,-0.4430070761044012,-0.6924149862953158,-0.5013440075597968,-0.5176134057785946,-0.6963164160898253,-0.8488412911446099,1.1015556492376684,0.3699896731530386,0.9487049724557408,-0.3605526113018772,-0.7107701339308264,-0.4058087070147278,-0.2863519063169807,-0.3778869936243956,-0.640034545508978,-0.72988290345403,-0.5067592741580557,-0.4251387092982467,-0.0557596650483375,0.6653405917167704,-0.7346450224284796,-0.4851764772755721,-0.5762048456960428,-1.1593416674100017,0.7824855917465621,-0.433011048210842,-0.2825426519677055,-0.3019207351094975,-0.4066867093837518,0.0857002342029475,0.0534399034789054,-0.015826419660375,-0.7297538056975786,0.9168611275175552,-0.1365948457777169,0.0820993061834681,-0.802034797891333,-0.9703349702644836,0.4091187331630863,0.2729608920219033,0.5027268036332528,0.4306668059117536,1.2292357477349394,1.1486001743279894,1.1214280284229572,-0.6108040273711954,-1.0253262513710033,-0.8137896810696428,-1.074684679060795,0.3769624878952794,5.59852993338126,0.4335189282206607,-0.6761913791690267,-0.1472047072197381,2.1972284153969395,-0.7501490201289235,-0.6801497595934858,-0.2069056950517833,1.202966642801889,0.7532366271429363,0.0239056192607564,-0.8841611290595309,1.0558535430131986,-0.2835748816950121,-0.6101833026271526,-0.5467464249523649,-0.2501593283565828,0.652256541930572,-0.4264394645381124,-0.3030457633656632,-0.2835748816950121,-0.2835748816950121,-0.8878428062293131,-0.829070730784769,-0.1435992628787478,-0.1767956821067766,-0.101015254455221,0.5871272559459072,-0.0480272753543897,-0.3948080203988208,-0.1767956821067766,-0.2052290799318516,-0.101015254455221,-0.4264394645381124,-0.2540706746549266,-0.2540706746549266,-0.199532002897127,-0.3503789166371986,-0.5718469052154376,1.7715657888760026,-0.2966173619504273,1.1379584466540968,-0.200080460899775,-0.101015254455221,-0.4561245320378142,0.2864535218417315,-0.101015254455221,-0.101015254455221,0.9577830282731016,-0.3890765377414685,-0.101015254455221,-0.3873915831529057,-0.3313012426364054,-0.3716329619084387,1.5435386181311788,-0.101015254455221,-0.101015254455221,-0.1767956821067766,-0.1767956821067766,-0.1767956821067766,-0.3146102220792177,-0.318129103702299,-0.318129103702299,-0.3163727581225843,-0.1435992628787478,-0.1989769753883445,-0.2835748816950121,-0.1934826842541162,-0.1435992628787478,-0.101015254455221,-0.1360885371684969,-0.1767956821067766,-0.1985377926751482,-0.101015254455221,1.4565004956662666
cyclohexamide,-0.2050092017174968,-0.8674982101609183,-0.5317655044218411,-0.4860671181379831,-0.5273404952749328,-0.5892166301227781,-0.4065341467677131,-0.4744321446778662,-0.2323708197828636,-0.3224506230608582,-0.2496933660992673,-0.3165083330328222,-0.1074367254137497,-0.1808377296864088,-0.5924987096871853,0.2089491803630726,-0.2052290799318515,1.9308305606180456,0.0141124789611004,-0.678248980705551,-0.9213251382753512,-0.8322390965776666,-0.63194795074569,-0.1280620055636073,-1.00494892407655,-0.5981146361080143,0.1685411710326106,0.0014572684142251,0.0318045343515868,1.1676301941054128,0.8254900154305763,-0.5658089303190332,-0.6269266455146665,-0.1010152544624812,-0.4917835422800347,-0.5028785502097578,-0.3791951641758627,-0.5667777901707671,0.156701861093249,-0.5714605688375808,0.156701861093249,-0.501554954080504,-0.4904218881092874,-0.4976787669723529,0.3429974929564731,0.5607923590185266,-0.2927209877081793,-0.6156746015074738,-0.5984436654804903,-0.4154489917771894,-0.5013440075597968,0.6096335668059003,0.0535628012376788,0.3744888049167397,-1.0361166997780047,-0.7631037008781422,-1.1484323350780017,-0.57469901074178,-0.3709873381980411,-0.5916463391990423,-0.4882403006987368,0.9937028350863738,0.3716329619084387,0.8774996704447326,-0.5067592741580557,-0.8935796574814371,-0.4573395542143574,-0.7974134097705441,1.0091681951143046,-0.4851764772755721,-0.5762048456960428,1.670977378261452,-0.7760235783950403,-0.433011048210842,-0.2825426519677055,-0.4610632988576231,-0.1448823701076288,0.2313037605642355,-0.7975742922468271,-0.5328227952326253,-0.2558741531848458,-0.1695129507864328,-0.1365948457777169,-0.4117213885754318,1.493361236588708,0.0860393545176981,-0.8895126266173158,-1.4745008087204146,-0.5907258671515986,-0.5174341374293645,-0.7071036402876192,-0.471273169209515,-0.4406372527733674,-0.5055009199887068,-0.0449921095854381,1.6157814913940507,0.3429774145542466,-1.3741121092913426,-0.1767956821067766,-0.6651623304469073,-0.3619376406671678,-0.8659477268523371,-0.3317810206197654,0.4443364504922352,-0.334931822731253,-0.4599740606208496,0.1265235901251457,-0.8991520802216957,0.0650075765336374,0.0823523814368584,-0.3214841074360675,-0.2835748816950121,-0.1279416602282739,-0.0364497616634909,-0.2501593283565828,-0.652256541930572,-0.4264394645381124,-0.3030457633656632,-0.2835748816950121,-0.2835748816950121,0.8640081000218148,0.911977803863246,-0.1435992628787478,-0.1767956821067766,-0.101015254455221,-0.7355962172195849,-0.0480272753543897,-0.3948080203988208,-0.1767956821067766,-0.2052290799318516,-0.101015254455221,-0.4264394645381124,-0.2540706746549266,-0.2540706746549266,-0.199532002897127,-0.3503789166371986,1.0764177039349414,-0.5432801752553075,-0.2966173619504273,-1.0274770440663206,-0.6902775901042241,-0.101015254455221,-0.4561245320378142,-0.7161338046043288,-0.101015254455221,-0.101015254455221,-0.4025464901437672,-0.3890765377414685,9.798479682156444,1.2632334233246925,1.8332002092547768,-0.3716329619084387,-0.4082908602798601,-0.101015254455221,-0.101015254455221,-0.1767956821067766,-0.1767956821067766,-0.1767956821067766,-0.3146102220792177,-0.318129103702299,-0.318129103702299,3.1285750525455565,-0.1435992628787478,-0.1989769753883445,-0.2835748816950121,-0.1934826842541162,-0.1435992628787478,-0.101015254455221,-0.1360885371684969,-0.1767956821067766,-0.1985377926751482,-0.101015254455221,1.321654825105835
az258,-0.9926593044977502,0.9311078802453512,0.406158795183447,0.3619726157855832,0.3225846924454589,0.5674234050715451,0.3736122828613609,0.2906602360201358,0.1942456298570573,0.0944967897739336,0.1400757806919304,0.0658783109169264,0.078252330048047,0.0023010286632929,-0.2820814962088359,-0.2008300703501695,-0.2052290799318515,-0.0700974261882222,1.2166164690933097,0.5634712949966999,1.7146814503724332,0.5671984779445627,-0.9929305927208134,1.1186114015325488,-0.2457205467735439,0.4327176111095996,0.5989551284099178,1.26673802496213,1.5188735258739845,-0.5949312946649586,-1.349653926710082,0.5102614782557492,0.474794527694666,-0.1010152544624796,0.2245786688025588,0.2785581901929012,0.023624456309083,0.4389951429387635,0.8243550753811156,0.6084034433068697,0.8243550753811156,-0.3306587950073592,0.0824966104702641,-0.326495009979135,0.0105531411742337,-0.6094171651218222,0.6123752973482961,0.4513405103709796,0.4322814395821493,-0.1384829972590631,0.4508209680382669,-0.5176134057785946,0.0535628012376788,-0.2371762431139351,1.1015556492376684,1.5030830471842194,1.6477507416336548,0.4960329864577341,-0.0312045424652557,0.7092170860911594,0.7230900655918002,-0.3778869936243956,0.3716329619084387,0.0738083834953513,0.4019764782205254,0.0892365092805491,1.5002457965868137,0.682566684107299,0.1372615863429124,-0.4851764772755721,-0.5762048456960428,0.2021061057312834,2.1553851906855366,0.9529897855620604,-0.2825426519677055,-0.7852412177098139,-0.1287569158882258,0.213584956107102,1.042772612826063,1.0181663314841254,-0.087498908284292,0.9164392026022556,-0.1365948457777169,1.6849967529139127,-0.802034797891333,-0.4543142782318816,1.164154702085292,0.7465002574034687,0.5027268036332528,1.4948420501965374,3.6642440733995856,1.1486001743279894,-0.4406372527733674,0.0221101355424314,-0.2524816420990223,0.3803279636695471,-0.6785043985705412,0.6362831189054778,-0.1767956821067766,0.4335189282206607,0.0048842783561418,1.849904663131014,-0.3317810206197654,-0.1803804764629316,-0.2818115231493014,-0.3097147636414543,-0.1118049686818788,0.207086516303102,0.996962869701558,-0.5795743413497567,0.3612951558124595,-0.2835748816950121,-0.6101833026271526,-0.5467464249523649,-0.2501593283565828,1.956769625791716,-0.4264394645381124,-0.3030457633656632,-0.2835748816950121,-0.2835748816950121,-0.3038925041456038,-0.2487212192354307,-0.1435992628787478,-0.1767956821067766,-0.101015254455221,1.9098507291113995,1.5208637195556745,-0.3948080203988208,-0.1767956821067766,-0.2052290799318516,-0.101015254455221,-0.4264394645381124,-0.2540706746549266,-0.2540706746549266,-0.199532002897127,-0.3503789166371986,0.2522853993597518,2.928988770941658,-0.2966173619504273,1.1379584466540968,-0.200080460899775,-0.101015254455221,-0.4561245320378142,0.2864535218417315,-0.101015254455221,-0.101015254455221,2.3181125466899704,-0.3890765377414685,-0.101015254455221,-0.3873915831529057,-0.3313012426364054,-0.3716329619084387,0.5676238789256592,-0.101015254455221,-0.101015254455221,-0.1767956821067766,-0.1767956821067766,-0.1767956821067766,-0.3146102220792177,-0.318129103702299,-0.318129103702299,-0.3163727581225843,-0.1435992628787478,-0.1989769753883445,-0.2835748816950121,-0.1934826842541162,-0.1435992628787478,-0.101015254455221,-0.1360885371684969,-0.1767956821067766,-0.1985377926751482,-0.101015254455221,-0.6835011471531907
caspase-inhibitor-1-zvad-,0.7072329981866212,-0.1474811230993071,0.3549482929084034,0.2686515802114898,0.2290561754364653,0.2108681899030767,0.1436913505730047,0.0651759592537337,0.1291376701808737,0.0308644676615317,-0.2261250906712348,-0.2933864573820627,-0.383470882618835,-0.4530807689270616,0.8892039857906081,1.1990722387073451,-0.2052290799318515,-0.4545933314359751,-1.0228408609226134,-0.2824549118255513,-0.299245208710667,1.2643801611187997,-0.6766486270127554,0.1182546184320823,-0.6253347354250469,0.2520056789227693,-0.3682672477188621,-0.4404167364805475,-0.5143240698445378,0.3048378569450908,-0.4556627271894884,0.2570684409440357,0.245519564839421,-0.1010152544624812,0.5049264488857755,0.6282357205638421,0.9324543079120828,0.2296885713412694,0.396649374590623,0.0209710198182396,0.396649374590623,1.099998957958498,-0.474670530301119,1.106570369912458,-1.0431702314714826,-0.0267915322695836,-0.4625906854993717,0.1563256501713805,0.251551620029453,0.4154489917771894,0.4508209680382669,-0.5176134057785946,-0.6963164160898253,-0.8488412911446099,0.0327194747298317,-0.7631037008781422,-0.4493865659000876,0.0677401875779284,0.6483610490003149,0.5233794539068448,1.3287552487370689,-0.3778869936243956,-0.640034545508978,-0.72988290345403,0.3111029029826673,0.3541348889564265,0.7787148088257425,0.6744145621604591,1.0091681951143046,-0.4851764772755721,0.0349689074755072,0.907124465203972,0.6600612903825617,-0.433011048210842,-0.2825426519677055,0.8026271809233068,-0.365943109782581,-0.8257120046231065,-0.8014525533045522,-1.0498191708048756,0.6443627214695242,0.2338343511875976,-0.1365948457777169,0.717259544873095,-0.2281857892713227,0.3413226353810696,-0.4458361873454073,-0.1608241246769332,-0.5907258671515986,0.5467411068554193,0.8387285883109794,-0.471273169209515,-0.4406372527733674,0.3077218970978722,0.7281558858785957,-0.2063968879537193,0.1494674770394647,-0.1309838041443227,-0.1767956821067766,-0.6651623304469073,0.4536201314227671,0.3435041509211871,-0.3317810206197654,1.082202231466282,0.2537830938988143,-0.3395506446677254,-1.9721252114989132,-0.1143404565895102,-0.5274216400939936,0.1482967405458694,-0.3214841074360675,-0.2835748816950121,0.3542999821706046,-0.5467464249523649,-0.2501593283565828,-0.652256541930572,-0.4264394645381124,-0.3030457633656632,-0.2835748816950121,-0.2835748816950121,1.4479584021055243,1.492327315412584,-0.1435992628787478,-0.1767956821067766,-0.101015254455221,-0.7355962172195849,1.5208637195556745,-0.3948080203988208,-0.1767956821067766,-0.2052290799318516,-0.101015254455221,-0.4264394645381124,-0.2540706746549266,3.895750344708875,1.4299793540960768,-0.3503789166371986,1.9005500085101308,-0.5432801752553075,-0.2966173619504273,0.0552407012938881,-0.6902775901042241,-0.101015254455221,-0.4561245320378142,-0.2148401413812986,-0.101015254455221,-0.101015254455221,0.9577830282731016,-0.3890765377414685,-0.101015254455221,1.2632334233246925,1.8332002092547768,-0.3716329619084387,-0.4082908602798601,-0.101015254455221,-0.101015254455221,-0.1767956821067766,-0.1767956821067766,-0.1767956821067766,-0.3146102220792177,-0.318129103702299,-0.318129103702299,-0.3163727581225843,-0.1435992628787478,-0.1989769753883445,-0.2835748816950121,-0.1934826842541162,-0.1435992628787478,-0.101015254455221,-0.1360885371684969,-0.1767956821067766,-0.1985377926751482,-0.101015254455221,-0.833584765381369
neomycin,-0.7870916658856052,-0.0491187664163935,0.8583898691356716,0.6666711070230694,0.6279606223738573,0.8138944361547366,0.7648936045116751,0.6743912210435952,0.7665073523052017,0.653788502131778,0.8114595858426817,0.7245456327594605,0.6426336867938964,0.5589310392641063,2.577118813466216,1.3351445142690734,-0.2052290799318515,0.012587510894088,-1.0228408609226134,-1.0971690834640264,-0.9213251382753512,-0.8322390965776666,-0.9929305927208134,-0.9407776442799152,4.029727341292619,0.9078815605578312,-2.0724209580409987,-2.374030803012559,-2.110858967636424,1.845538459017094,1.1563371522610324,0.8267527748953911,0.883843510040471,-0.1010152544624753,0.9820363086203576,0.8390637446994669,0.2148067769542488,0.7724764113518193,-0.2693086913389509,-0.5578915227893843,-0.2693086913389509,-0.8513369988116171,-0.2514128473782115,-0.8480494533036583,-0.4167962779292248,0.5473343445730835,-3.772335939288321,0.5438359707089269,0.9072150291798114,4.292972915030958,2.1647179241147816,0.6096335668059003,1.5533212358926871,1.5978189009780894,-1.0361166997780047,-0.7631037008781422,-1.1484323350780017,2.637496980856762,3.3666234148625973,2.010080511381361,0.7230900655918002,0.9937028350863738,2.3949679767432723,2.484882244343495,1.0153731110760675,3.6274497386794455,3.4158665503888685,1.6029891029786427,-0.7346450224284796,-0.4851764772755721,-0.5762048456960428,-1.1593416674100017,-0.7760235783950403,-0.433011048210842,-0.2825426519677055,-1.0379793136659998,-1.0904181205638552,0.2600058798081472,0.3692061227444919,0.5011699559118752,1.8577960259628483,-1.3344016102443104,-0.1365948457777169,-0.9762118552996952,2.5338675011935115,1.5197611793279968,0.4197550629173774,-1.4745008087204146,-0.5907258671515986,2.393323598371793,-0.7071036402876192,-0.471273169209515,-0.4406372527733674,2.7516504210710364,0.911756849786919,-0.8137896810696428,-0.876594538815668,-1.3741121092913426,-0.1767956821067766,-0.6651623304469073,2.753333611157879,1.475877407028494,-0.3317810206197654,-1.140092678541072,2.3148392910115,5.139430197526143,0.3480136013226043,-1.5218124297122206,-3.952021646611669,-1.1171850968283503,-0.3214841074360675,-0.2835748816950121,2.765508194164998,3.0253302180697528,-0.2501593283565828,-0.652256541930572,-0.4264394645381124,-0.3030457633656632,-0.2835748816950121,-0.2835748816950121,-0.8878428062293131,-0.829070730784769,-0.1435992628787478,-0.1767956821067766,-0.101015254455221,-0.7355962172195849,-0.8324727728094219,5.408869879463846,-0.1767956821067766,-0.2052290799318516,-0.101015254455221,-0.4264394645381124,-0.2540706746549266,-0.2540706746549266,-0.199532002897127,-0.3503789166371986,-0.5718469052154376,-0.5432801752553075,-0.2966173619504273,-1.0274770440663206,-0.6902775901042241,-0.101015254455221,-0.4561245320378142,2.291628174733852,-0.101015254455221,-0.101015254455221,-0.4025464901437672,-0.3890765377414685,-0.101015254455221,-0.3873915831529057,-0.3313012426364054,-0.3716329619084387,-0.4082908602798601,-0.101015254455221,-0.101015254455221,-0.1767956821067766,-0.1767956821067766,-0.1767956821067766,-0.3146102220792177,-0.318129103702299,-0.318129103702299,-0.3163727581225843,-0.1435992628787478,-0.1989769753883445,-0.2835748816950121,-0.1934826842541162,-0.1435992628787478,-0.101015254455221,-0.1360885371684969,-0.1767956821067766,-0.1985377926751482,-0.101015254455221,-1.582616478901359
okadaic-acid,-1.5046946846518774,1.0778402337205122,1.7068305869240452,1.9227224780190828,1.8868045828343945,1.7638761012548512,2.172025136481033,2.0543701235446714,2.3826696031563586,2.23332128803912,2.3660557916314517,2.249696688769123,2.327766667783688,2.220920008000583,1.1866729679634935,0.95974606963374,-0.2052290799318515,1.153409292582292,2.096759075703331,2.211022603793505,-0.299245208710667,-0.4979930407073232,0.0458199370583581,0.8188640430684688,1.652350396483971,1.7674677001689505,-0.3682672477188621,0.0149215732725143,0.3689233067570719,1.306293248291893,0.4594463746819863,1.7762266648143168,1.703203234827686,-0.1010152544502658,1.6991830379931747,1.309550414105582,0.6948894387668126,1.8256796500031611,-0.0819084397824246,0.4110922597643312,-0.0819084397824246,0.4582220895768754,-0.3839294301928583,0.4637134673539494,-0.7305856725216123,-0.4137205222678536,1.168242455199749,1.7643622855418883,1.76718033772954,0.4154489917771894,1.022119953397105,-0.5176134057785946,4.552838105202704,3.432814045070114,-1.0361166997780047,-0.7631037008781422,-1.1484323350780017,1.1384721847774426,0.6483610490003149,0.8950547182754739,0.9249784599735564,-0.3778869936243956,5.429970498995522,4.092264818242258,1.87867207583572,1.6984322742607036,0.7187935403803516,1.3873981190805704,0.119539324553437,-0.4851764772755721,0.0225378058637935,-1.1593416674100017,-0.0263885090869257,-0.433011048210842,-0.2825426519677055,0.8399557589823909,2.308151924756803,1.0039220468803003,1.5201044856386938,2.052159082628626,1.825546729906389,-0.939258278531814,-0.1365948457777169,-0.9762118552996952,0.919512227968698,3.2610481978087,-0.4503369712279342,-0.1587044639819002,-0.5907258671515986,-1.0495217595717563,-0.7071036402876192,-0.471273169209515,-0.4406372527733674,1.6208867222300989,1.5613820805750944,1.0083886982781276,2.766605765344498,0.0994039629052079,-0.1767956821067766,-0.6651623304469073,0.7860127805660932,2.191052127698672,-0.3317810206197654,-0.6133455913559742,1.4825581461082222,-0.546575357162886,-1.346462360277744,-0.8991520802216957,1.4945561538018048,2.612564471418311,-0.3214841074360675,2.804240496761787,1.318783266968362,0.9841435649142568,-0.2501593283565828,-0.652256541930572,-0.4264394645381124,-0.3030457633656632,2.804240496761787,2.804240496761787,-0.3038925041456038,-0.829070730784769,-0.1435992628787478,-0.1767956821067766,-0.101015254455221,-0.7355962172195849,-0.8324727728094219,-0.3948080203988208,-0.1767956821067766,-0.2052290799318516,-0.101015254455221,-0.4264394645381124,-0.2540706746549266,-0.2540706746549266,-0.199532002897127,-0.3503789166371986,-0.5718469052154376,-0.5432801752553075,-0.2966173619504273,-1.0274770440663206,-0.200080460899775,-0.101015254455221,-0.4561245320378142,2.7929218379568823,-0.101015254455221,-0.101015254455221,-0.4025464901437672,-0.3890765377414685,-0.101015254455221,-0.3873915831529057,-0.3313012426364054,-0.3716329619084387,-0.4082908602798601,-0.101015254455221,-0.101015254455221,-0.1767956821067766,-0.1767956821067766,-0.1767956821067766,-0.3146102220792177,-0.318129103702299,-0.318129103702299,-0.3163727581225843,-0.1435992628787478,-0.1989769753883445,-0.2835748816950121,-0.1934826842541162,-0.1435992628787478,-0.101015254455221,-0.1360885371684969,-0.1767956821067766,-0.1985377926751482,-0.101015254455221,-1.2788380942163873
mitomycin-c,-0.348897196867615,-0.2445650097033938,-0.3148173777075355,-0.3578818797227552,-0.3988702615525289,-0.3242973034489039,-0.3626693458957837,-0.4314137783130994,-0.248466155929894,-0.3381811669038695,0.011324181677344,-0.0604346419056988,0.1400407509286711,0.0632408328554382,-0.1198456076047336,-0.1448343783590292,-0.2052290799318515,1.4709820832145728,-0.3461630389046404,-1.0971690834640264,0.3395517626554211,-0.8322390965776666,-0.7374641720483106,-0.5877668900425826,0.6732764977131732,-0.3586873300380326,1.1228672488130078,1.1526553337979744,0.9866254052640158,0.2637525075565042,0.0089311245298755,-0.3126158930073197,-0.3442728974565036,-0.1010152544624812,-0.4924302397447618,-0.7452726366444165,-0.7321503644796998,-0.3644921299129597,0.3949076260967256,0.0683500157101994,0.3949076260967256,1.0680190186395704,-0.3376511718923827,1.0745366121573403,0.1515906129873748,-0.0737828394594752,-1.2356361294157536,-0.4825589568213797,-0.3591089030663659,0.4154489917771894,0.2603879729186541,0.6096335668059003,1.5533212358926871,1.5978189009780894,-1.0361166997780047,-0.7631037008781422,-1.1484323350780017,0.2818865870178312,-0.0312045424652557,0.1517041895382158,-0.4882403006987368,-0.3778869936243956,1.3833004693258557,0.8774996704447326,-0.3250121236823395,0.3665896900710265,-0.4053497254332939,-0.069156313441188,0.9725823584566824,-0.4851764772755721,0.0349689074755072,0.218302420999314,-0.0263885090869257,-0.433011048210842,-0.2825426519677055,-1.0379793136659998,-1.0711485220264143,0.5882512273901187,0.2792684494365379,0.5011699559118752,-0.0492606174282446,-0.165400495647074,-0.1365948457777169,0.1085084977116273,0.8837816437569587,-0.4684350267544739,0.4573147336181332,-0.6495833057069571,-0.5907258671515986,0.6301809818851523,0.0998194566813007,-0.471273169209515,-0.4406372527733674,0.2197203027889714,0.2739242102053474,-0.2063968879537193,-0.8610789828660911,-0.4503147421781699,-0.1767956821067766,-0.6651623304469073,0.3707819216779757,-0.1374332906834482,-0.3317810206197654,0.6079401504952313,-0.7440089662326477,1.2168137976038214,-0.2470025983134144,-0.8828598348142996,-0.4340198066158175,-0.4217765225982655,0.3341452955948761,-0.2835748816950121,-0.6101833026271526,-0.5467464249523649,-0.2501593283565828,-0.652256541930572,-0.4264394645381124,-0.3030457633656632,-0.2835748816950121,-0.2835748816950121,0.8640081000218148,0.911977803863246,-0.1435992628787478,-0.1767956821067766,-0.101015254455221,-0.0742344806368388,-0.0480272753543897,1.5397512795554014,-0.1767956821067766,-0.2052290799318516,-0.101015254455221,-0.4264394645381124,-0.2540706746549266,-0.2540706746549266,-0.199532002897127,0.8759472915929968,0.2522853993597518,-0.5432801752553075,-0.2966173619504273,-1.0274770440663206,1.2705109267135717,-0.101015254455221,-0.4561245320378142,0.2864535218417315,-0.101015254455221,-0.101015254455221,-0.4025464901437672,-0.3890765377414685,-0.101015254455221,2.913858429802291,3.997701661145959,-0.3716329619084387,0.5676238789256592,-0.101015254455221,-0.101015254455221,-0.1767956821067766,-0.1767956821067766,-0.1767956821067766,-0.3146102220792177,-0.318129103702299,-0.318129103702299,-0.3163727581225843,6.892764618179895,2.5867006800484798,-0.2835748816950121,-0.1934826842541162,-0.1435992628787478,-0.101015254455221,-0.1360885371684969,-0.1767956821067766,-0.1985377926751482,-0.101015254455221,-0.2442050619597464
cdk1-2-inhibitor-nu6102-,-0.7360237282966337,0.2879632810424461,-0.1278614889589003,-0.1466694882084162,-0.0994225567704236,-0.036621331529736,-0.0776866028708764,0.1223878059795705,-0.1419716326654772,0.0894420223515472,-0.1566627259838655,0.0265761931583515,-0.188420211420984,-0.08239520946579,-0.4861284904462485,-0.5581499145951555,-0.2052290799318515,-0.9648275640569434,1.2547735225062182,-1.0971690834640264,3.053241041567513,0.1832612149617153,-0.9929305927208134,0.7358877803398276,-0.2134952194984968,-0.0512056423979064,0.1429788653777786,0.4400089123699389,0.6456179513667198,-0.2258479059908211,-0.2233658013298066,-0.0594228556956062,-0.0319215063758905,-0.1010152544624812,-0.2219823503592586,-0.2232600775084297,-0.2324482901973094,-0.0886275422768101,-0.1659919291485085,0.3719202847142766,-0.1659919291485085,-0.3211168196734476,-0.3871881281308951,-0.3169369766350592,-2.2848246782095347,-0.3748690802278112,0.2890941079011112,-0.0465743821929521,-0.0512533842102365,0.1384829972590631,0.2603879729186541,0.6096335668059003,-0.6963164160898253,-0.2371762431139351,0.0327194747298317,1.5030830471842194,0.9487049724557408,0.0677401875779284,-0.0312045424652557,0.3375418217225303,0.1174248824465316,0.9937028350863738,-0.640034545508978,0.0738083834953513,-0.0978281855876942,-0.4131850533103293,-0.8223910367673727,0.6227077761667362,2.4906793610452573,-0.4851764772755721,-0.5762048456960428,-1.1593416674100017,2.1228580675514523,2.276629853205148,-0.2825426519677055,-0.2354629740814804,0.3120999027271386,-0.8681761706862294,-0.0655824858343342,0.5011699559118752,-0.5556076585251128,0.8383383187426932,-0.1365948457777169,1.1404104676666316,0.2701315144586733,-0.2194943892339815,-0.0969169869943547,-0.3548821540681097,-0.0315924018164424,0.4709087991015774,1.251195010946919,0.357043794272832,-0.4406372527733674,-0.3652844138728182,-0.3421755353584331,-0.2063968879537193,-0.0842339778351608,0.0803490107646039,-0.1767956821067766,0.4598150074107859,0.2435784782623333,1.0760427862975384,-0.3317810206197654,-0.4069292046912662,-0.528830807350719,-0.1795155848435785,0.9273238530007476,0.0006728461349605,1.1818736558110594,-0.736496195039138,-1.9333473903959948,-0.2835748816950121,-0.6101833026271526,-0.5467464249523649,-0.2501593283565828,1.956769625791716,2.031858625152182,-0.3030457633656632,-0.2835748816950121,-0.2835748816950121,-0.8878428062293131,-0.829070730784769,-0.1435992628787478,-0.1767956821067766,-0.101015254455221,1.2484889925286533,0.7364182221006423,0.5724716295782902,-0.1767956821067766,-0.2052290799318516,-0.101015254455221,2.031858625152182,-0.2540706746549266,-0.2540706746549266,-0.199532002897127,-0.3503789166371986,-0.5718469052154376,1.7715657888760026,-0.2966173619504273,0.0552407012938881,-0.200080460899775,-0.101015254455221,-0.4561245320378142,-0.2148401413812986,-0.101015254455221,-0.101015254455221,-0.4025464901437672,2.543961977540371,-0.101015254455221,-0.3873915831529057,-0.3313012426364054,-0.3716329619084387,-0.4082908602798601,-0.101015254455221,-0.101015254455221,-0.1767956821067766,-0.1767956821067766,-0.1767956821067766,-0.3146102220792177,-0.318129103702299,-0.318129103702299,-0.3163727581225843,-0.1435992628787478,-0.1989769753883445,-0.2835748816950121,-0.1934826842541162,6.892764618179895,-0.101015254455221,-0.1360885371684969,-0.1767956821067766,-0.1985377926751482,-0.101015254455221,0.505075598693847
az138,-0.3632126591122006,0.7356660454567651,0.2602056954354872,0.319742991437165,0.3680269016220918,0.3708467629323377,0.3563933945692142,0.4298245421106693,0.1656977970989941,0.2564242951180734,0.1571147404265172,0.3242198240740701,0.1011683498962907,0.2942082634809178,-0.7581599604702343,-0.4770030511678995,-0.2052290799318515,-0.1213058080075658,1.9665081481303848,-0.3712053961154249,0.0972558328150407,-0.5809997956536695,3.427820911732241,-0.9407776442799152,-0.1460322677349515,0.2745471395207408,0.052758963066607,0.3174724236176075,0.4600697779226024,-0.5396943249314143,-0.6246059459965297,0.320366700271964,0.2802837348866988,-0.1010152544624809,0.1838824772688554,0.2808015459339162,-0.0956480892478945,0.3587377530556062,0.7577436324859472,-1.2732447288553947,0.7577436324859472,-0.1038714904327282,-0.30380735964519,-0.0993260493307317,0.6762079809049857,1.2568340210157036,1.0083597369612358,0.5436051241448013,0.2746809892925771,-0.4154489917771894,-0.3109110124401841,-0.5176134057785946,-0.6963164160898253,-0.8488412911446099,1.1015556492376684,1.5030830471842194,1.6477507416336548,-0.1464062118619744,-0.7107701339308264,-0.2199710748304132,0.7230900655918002,-0.3778869936243956,-0.640034545508978,-0.72988290345403,0.2202293277448091,-0.6262211383178233,-0.1580719103942709,-0.7974134097705441,-0.7346450224284796,3.181266090215862,-0.5762048456960428,0.8744489466596492,0.0032310066757608,-0.433011048210842,2.206760243840087,1.2514309005116613,0.7882781530877451,-0.4964258367120192,-0.0485019076205962,0.5011699559118752,-0.9511276964918712,0.4833756711580605,-0.1365948457777169,0.5580686120333231,-0.2460510813771923,-0.1733045352323138,-0.019420592472004,2.145438998077146,-0.5907258671515986,0.0806398933842652,-0.7071036402876192,-0.471273169209515,1.085859719699413,-0.3997639742845342,-0.5792596893608774,-0.1031619617856351,0.564024353104106,1.5291431116799432,-0.1767956821067766,0.3643604524310867,-0.3879328947711819,-0.7058562788113628,0.2578418765003614,0.4062356784802254,-0.8049664498258329,0.9787495398280172,0.5848031582983174,1.9247550527851471,-0.0158322157485608,0.4146956529860544,-0.3214841074360675,-0.2835748816950121,-0.6101833026271526,-0.5467464249523649,-0.2501593283565828,0.652256541930572,-0.4264394645381124,-0.3030457633656632,-0.2835748816950121,-0.2835748816950121,-0.3038925041456038,-0.2487212192354307,-0.1435992628787478,-0.1767956821067766,-0.101015254455221,1.2484889925286533,-0.8324727728094219,0.5724716295782902,-0.1767956821067766,-0.2052290799318516,-0.101015254455221,-0.4264394645381124,-0.2540706746549266,-0.2540706746549266,-0.199532002897127,-0.3503789166371986,0.2522853993597518,-0.5432801752553075,3.3369453219423075,1.1379584466540968,-0.200080460899775,-0.101015254455221,-0.4561245320378142,-0.7161338046043288,-0.101015254455221,-0.101015254455221,-0.4025464901437672,-0.3890765377414685,-0.101015254455221,-0.3873915831529057,-0.3313012426364054,-0.3716329619084387,-0.4082908602798601,-0.101015254455221,-0.101015254455221,-0.1767956821067766,-0.1767956821067766,-0.1767956821067766,-0.3146102220792177,-0.318129103702299,-0.318129103702299,-0.3163727581225843,-0.1435992628787478,-0.1989769753883445,-0.2835748816950121,-0.1934826842541162,-0.1435992628787478,-0.101015254455221,-0.1360885371684969,5.59852993338126,-0.1985377926751482,-0.101015254455221,-0.3858797888680669
temozolomide,0.9728002729934828,-0.5795712906611573,-0.9243355356462508,-1.0102061532030366,-1.0526448530179175,-0.9582206325192488,-1.0813449214337396,-1.1362214735803493,-1.0567920293792827,-1.1281867607964875,-1.0224170958933767,-1.0745961297936888,-1.0016534371423336,-1.0627730590155993,-0.4434202210113602,-0.4770030511678995,-0.2052290799318515,-0.5337559182510696,-1.0228408609226134,-0.5045905901191325,0.2803834010657058,-0.8322390965776666,-0.9929305927208134,0.0748106994478688,-0.5454504018331914,-0.9918823300150712,1.6767172046677017,1.6460259332481522,1.4128847226356356,-0.9790793114482448,0.1074813355006495,-0.9455984862866036,-0.9682449305276096,-0.1010152544624812,-1.0214021117754275,-1.070268008144831,-0.8468479357361092,-1.0231680616212304,-0.1563470822337523,-0.8912321621192048,-0.1563470822337523,0.6102743819408504,-0.3336799703509162,0.6160216456504309,0.3419019300178577,0.8779473532856772,-1.3851256655671873,-1.1093620062291791,-0.9923567008332046,-0.4154489917771894,0.0699549777990414,-0.5176134057785946,-0.6963164160898253,-0.8488412911446099,-1.0361166997780047,1.5030830471842194,0.2496592032778265,0.0677401875779284,-0.7107701339308264,-0.0341334426460987,-0.8920170894622492,-0.3778869936243956,-0.640034545508978,-0.72988290345403,-0.9611271503473464,-0.8632431761061423,-0.4229963033085945,0.645252290941309,-0.7346450224284796,1.403668072649986,-0.0055032506860974,-0.4705196232053437,1.440923104121732,0.8396674627539126,0.8370130604595333,-0.8207783088978677,-1.3364368574466323,-0.7894188564444842,-1.178621572506411,-0.5328227952326253,-0.9511276964918712,-0.5695509482618204,-0.1365948457777169,1.6120902424629084,0.4373493560058298,-0.9703349702644836,-0.8895126266173158,-0.650855398425209,-0.5907258671515986,0.093697574905589,-0.7071036402876192,-0.471273169209515,-0.4406372527733674,-0.4718255815960416,-0.5449828105291356,-0.8137896810696428,-0.7511027980706725,-0.9182908440024788,-0.1767956821067766,-0.0960996417205295,-0.0765675178364355,-0.7218837112076399,-0.3317810206197654,0.038229063119555,-0.5743907360583421,0.2621494856502678,0.0191392302293599,-0.8991520802216957,-0.0347994085620924,-0.8841611290595309,0.3020087383746026,-0.2835748816950121,-0.6101833026271526,-0.5467464249523649,-0.2501593283565828,2.609026167722288,-0.4264394645381124,-0.3030457633656632,-0.2835748816950121,-0.2835748816950121,-0.3038925041456038,-0.2487212192354307,-0.1435992628787478,-0.1767956821067766,-0.101015254455221,2.571212465694145,-0.8324727728094219,0.5724716295782902,-0.1767956821067766,-0.2052290799318516,-0.101015254455221,-0.4264394645381124,-0.2540706746549266,-0.2540706746549266,-0.199532002897127,-0.3503789166371986,0.2522853993597518,-0.5432801752553075,3.3369453219423075,-1.0274770440663206,-0.200080460899775,-0.101015254455221,-0.4561245320378142,-0.7161338046043288,-0.101015254455221,-0.101015254455221,-0.4025464901437672,2.543961977540371,-0.101015254455221,-0.3873915831529057,-0.3313012426364054,-0.3716329619084387,-0.4082908602798601,-0.101015254455221,-0.101015254455221,-0.1767956821067766,-0.1767956821067766,-0.1767956821067766,-0.3146102220792177,-0.318129103702299,-0.318129103702299,-0.3163727581225843,-0.1435992628787478,2.5867006800484798,-0.2835748816950121,-0.1934826842541162,-0.1435992628787478,-0.101015254455221,-0.1360885371684969,-0.1767956821067766,-0.1985377926751482,-0.101015254455221,0.4311956137978652
monastrol,0.396812136511784,-0.5507237268100035,-0.5457825291845232,-0.5749177203965081,-0.5286229168165195,-0.5676453684030005,-0.6127310294164563,-0.6042266723267663,-0.6881091200344172,-0.6832667696184351,-0.6810510284230271,-0.6801006505546338,-0.6253942732026523,-0.5979497591326748,-0.4321782360147155,-0.4553881652546677,-0.2052290799318515,-0.9077116760027504,0.2479252832899612,-0.7341872397897258,-0.9213251382753512,0.9306651255456844,-0.6766486270127554,-0.2347561358052502,0.3538107790990993,-0.5487263281763716,1.4210941481193813,1.536388022259224,1.3446832318561766,-0.5755624870960536,0.2271494488223044,-0.5658089303190332,-0.5389249684218939,-0.1010152544624812,-0.5565329707310113,-0.5228423258097145,-0.4816678254609711,-0.5282738335663081,0.1332723694760912,0.7376680400428128,0.1332723694760912,0.4825137499171607,-0.1233791866364192,0.4880460076708643,0.610190354190294,-0.7376240268258493,-0.0452876163223684,-0.5012434310152722,-0.5487155215647733,-0.1384829972590631,-0.5013440075597968,-0.5176134057785946,0.0535628012376788,-0.2371762431139351,0.0327194747298317,-0.7631037008781422,-0.4493865659000876,-0.57469901074178,-0.0312045424652557,-0.4058087070147278,-0.4882403006987368,-0.3778869936243956,-0.640034545508978,-0.72988290345403,-0.5749144555864493,-0.1500694197481539,-0.4594688644987334,-0.147076674467993,-0.7346450224284796,-0.4851764772755721,0.0225378058637935,-1.1593416674100017,-0.0263885090869257,-0.433011048210842,-0.2825426519677055,-0.5325031217536278,0.3403200781703445,-0.867617282673215,-0.0411025722373916,-0.5328227952326253,-0.4854338019223665,0.2079366180583587,-0.1365948457777169,0.1527690781488315,-0.802034797891333,-0.5667168663699476,-0.4503369712279342,0.0296209398646968,-0.0439995317591728,0.0146534847130273,-0.7071036402876192,0.3386635025592372,1.2044980635041245,-0.64253709681736,-0.375701020582828,-0.8137896810696428,-0.2894359328203628,0.0822892183828596,-0.1767956821067766,-0.6651623304469073,-0.5107460286048128,-0.5221662500664721,1.8261328884544128,-0.5889301813091012,-0.1865985562661759,-0.1671321661301806,0.2289761270128129,0.033566204586742,-0.256584256483938,0.0383349709307401,-0.3214841074360675,-0.2835748816950121,-0.6101833026271526,-0.5467464249523649,-0.2501593283565828,-0.652256541930572,-0.4264394645381124,1.111167799007432,-0.2835748816950121,-0.2835748816950121,-0.3038925041456038,-0.2487212192354307,6.892764618179895,-0.1767956821067766,-0.101015254455221,-0.7355962172195849,0.7364182221006423,-0.3948080203988208,-0.1767956821067766,-0.2052290799318516,-0.101015254455221,-0.4264394645381124,-0.2540706746549266,-0.2540706746549266,-0.199532002897127,0.262784187477899,-0.5718469052154376,-0.5432801752553075,-0.2966173619504273,0.0552407012938881,-0.6902775901042241,-0.101015254455221,0.6613805714548306,-0.2148401413812986,-0.101015254455221,-0.101015254455221,-0.4025464901437672,-0.3890765377414685,-0.101015254455221,-0.3873915831529057,-0.3313012426364054,-0.3716329619084387,-0.4082908602798601,-0.101015254455221,-0.101015254455221,-0.1767956821067766,-0.1767956821067766,-0.1767956821067766,-0.3146102220792177,1.2407035044389665,1.2407035044389665,-0.3163727581225843,-0.1435992628787478,-0.1989769753883445,-0.2835748816950121,-0.1934826842541162,-0.1435992628787478,-0.101015254455221,-0.1360885371684969,-0.1767956821067766,-0.1985377926751482,-0.101015254455221,0.5312145533068098
anisomycin,-0.1386069963047025,-0.8189855987467844,-0.6205555508970462,-0.5897391844909637,-0.6312430565956735,-0.6249277087201678,-0.6044678336903583,-0.6685464160461035,-0.6196854969690021,-0.7009870173841574,-0.5944081145084937,-0.6546939407171574,-0.5548404664256212,-0.6220967226095712,-0.4268374589041365,-0.4553881652546677,-0.2052290799318515,-0.4889447819780643,-0.3061552289148687,-0.3590660747023275,-0.299245208710667,-0.4411242311848006,0.272197270111419,-0.5877668900425826,-0.2457205467735439,-0.6705838171133872,1.1385634014080797,1.0920659619356714,0.829582498863945,0.1507677967378906,0.5720751872200137,-0.6291071896469617,-0.6854401609908228,-0.1010152544624812,-0.5953249178409551,-0.5032692054223701,-0.3784255122449387,-0.6388809338287398,-0.2951801165349348,0.6109694533415051,-0.2951801165349348,0.1717452943918751,-0.3260252575624531,0.1767545657781956,0.4249434336160383,-0.6119621782340642,-0.4816051662045089,-0.6598526424431423,-0.6709171949899242,-0.4154489917771894,-0.5013440075597968,-0.5176134057785946,0.0535628012376788,-0.2371762431139351,0.0327194747298317,-0.7631037008781422,-0.4493865659000876,-0.3605526113018772,-0.3709873381980411,-0.5916463391990423,-0.2863519063169807,-0.3778869936243956,0.3716329619084387,0.0738083834953513,-0.5976328493959139,-0.1781220098830643,0.3111234240751289,-0.7974134097705441,-0.7346450224284796,-0.4851764772755721,0.0225378058637935,-0.4705196232053437,-0.7760235783950403,-0.433011048210842,-0.2825426519677055,-0.5325031217536278,-0.4123751080541357,-0.417668522470274,-0.3576150803889338,-0.5328227952326253,-0.2613313251469978,-0.939258278531814,-0.1365948457777169,-0.4117213885754318,-0.802034797891333,-0.3291844629904423,0.0181390782287514,-0.3828378116420319,-0.0439995317591728,-0.0433836657588054,-0.7071036402876192,0.3386635025592372,-0.4406372527733674,-0.1825169801797749,0.0619186017504682,-0.8137896810696428,-0.689439751789773,-0.3796094651737267,-0.1767956821067766,-0.6651623304469073,-0.5430956781564749,-0.171002318680882,-0.3317810206197654,-0.6375443823970512,-0.3178247055183298,-0.2869103054425855,0.5421374748053401,0.2399114366850341,-0.3386476571425691,-0.4502921487822011,0.3808316773638736,-0.2835748816950121,-0.1279416602282739,-0.0364497616634909,-0.2501593283565828,-0.652256541930572,-0.4264394645381124,-0.3030457633656632,-0.2835748816950121,-0.2835748816950121,-0.3038925041456038,-0.2487212192354307,-0.1435992628787478,5.59852993338126,-0.101015254455221,-0.7355962172195849,-0.0480272753543897,-0.3948080203988208,-0.1767956821067766,-0.2052290799318516,-0.101015254455221,-0.4264394645381124,-0.2540706746549266,-0.2540706746549266,-0.199532002897127,-0.3503789166371986,-0.5718469052154376,-0.5432801752553075,-0.2966173619504273,0.0552407012938881,-0.6902775901042241,-0.101015254455221,0.6613805714548306,0.2864535218417315,-0.101015254455221,-0.101015254455221,-0.4025464901437672,-0.3890765377414685,-0.101015254455221,-0.3873915831529057,-0.3313012426364054,-0.3716329619084387,0.5676238789256592,-0.101015254455221,-0.101015254455221,-0.1767956821067766,-0.1767956821067766,-0.1767956821067766,-0.3146102220792177,-0.318129103702299,-0.318129103702299,-0.3163727581225843,-0.1435992628787478,-0.1989769753883445,-0.2835748816950121,-0.1934826842541162,-0.1435992628787478,-0.101015254455221,-0.1360885371684969,-0.1767956821067766,-0.1985377926751482,-0.101015254455221,1.4072105948153817
olomoucine,-0.2965566531281848,-0.2474686229827342,-0.4886194759117682,-0.4616944694450169,-0.5029136586693269,-0.4000120668808818,-0.4637364267833903,-0.5305306243175879,-0.5762843418476705,-0.6585695265509879,-0.6011087274536253,-0.6612676393220592,-0.6145699978883413,-0.6810059146547777,-0.7581599604702343,-1.14134039678564,-0.2052290799318515,-0.8503722961203614,0.3510842877635194,-0.0058111583810567,-0.9213251382753512,-0.4841688561845146,0.5614742429043185,1.5635436257798598,-0.5957096717008825,-0.521304885792011,0.1197404056915683,0.6293834858962702,0.9323742194167184,-0.6401251789924042,-0.1881692974116727,-0.4392124116631765,-0.5195649891943324,-0.1010152544624812,-0.5609410113579726,-0.4428479565026451,-0.4663282493582613,-0.4689653567290469,-1.146436513049378,-0.5468177515533251,-1.146436513049378,-0.5013095775348549,-0.4266137094499288,-0.4974329774871471,1.0165756195078486,0.5363511868233739,-0.1743269559143178,-0.3849742989476452,-0.521655966508892,-0.1384829972590631,-0.1204780173205713,-0.5176134057785946,-0.6963164160898253,-0.8488412911446099,0.0327194747298317,1.5030830471842194,0.9487049724557408,0.0677401875779284,-0.0312045424652557,-0.2199710748304132,0.1174248824465316,-0.3778869936243956,-0.640034545508978,-0.72988290345403,-0.4840408803485911,-0.1582813352613153,-0.8223910367673727,1.3627794818302794,0.1433367841071345,-0.4851764772755721,-0.5762048456960428,-1.1593416674100017,0.0032310066757608,2.276629853205148,-0.2825426519677055,0.2257111661149302,-1.1232689189683531,-0.031567128874108,-0.371188799074522,-0.015826419660375,-0.9363673414541798,0.183474887849606,-0.1365948457777169,1.096149887229427,-0.1186343605083108,-0.8375208366126136,0.6915490143118805,0.070739782114977,-0.5907258671515986,0.0146534847130273,1.2731542741588986,-0.471273169209515,-0.4406372527733674,-0.3010933930179192,-0.0989162485190096,-0.8137896810696428,-0.9030454479844766,0.1283368268658754,-0.1767956821067766,0.4598150074107859,-0.3108714081606157,-0.7414434365129442,-0.3317810206197654,-0.539182072349389,-0.2199659684859081,-0.0462043907321853,0.8580512256887424,0.602576819714714,0.0631553952780387,-0.6220550707417813,0.4942015408118597,-0.2835748816950121,-0.1279416602282739,-0.0364497616634909,-0.2501593283565828,1.956769625791716,-0.4264394645381124,-0.3030457633656632,-0.2835748816950121,-0.2835748816950121,-0.8878428062293131,-0.829070730784769,-0.1435992628787478,-0.1767956821067766,-0.101015254455221,1.9098507291113995,0.7364182221006423,-0.3948080203988208,-0.1767956821067766,-0.2052290799318516,-0.101015254455221,-0.4264394645381124,-0.2540706746549266,-0.2540706746549266,-0.199532002897127,-0.3503789166371986,-0.5718469052154376,1.7715657888760026,3.3369453219423075,0.0552407012938881,-0.200080460899775,-0.101015254455221,-0.4561245320378142,-0.7161338046043288,-0.101015254455221,-0.101015254455221,-0.4025464901437672,2.543961977540371,-0.101015254455221,-0.3873915831529057,-0.3313012426364054,-0.3716329619084387,-0.4082908602798601,-0.101015254455221,-0.101015254455221,-0.1767956821067766,-0.1767956821067766,-0.1767956821067766,-0.3146102220792177,-0.318129103702299,-0.318129103702299,-0.3163727581225843,-0.1435992628787478,-0.1989769753883445,-0.2835748816950121,-0.1934826842541162,-0.1435992628787478,-0.101015254455221,-0.1360885371684969,-0.1767956821067766,-0.1985377926751482,-0.101015254455221,0.7787897566507909
tunicamycin,-0.6809720405122899,0.9862733907539628,1.3724718942597611,1.1618613910600448,1.1242518670897257,1.3089574208207535,1.1625156555096876,1.0643405819100342,1.1281766816607517,1.0072607869060024,0.8909790384109406,0.8025589307504046,0.7355509168199424,0.6505721222237031,2.7163589303205806,3.017602764226656,-0.2052290799318515,-0.896449772432192,-0.667923356080145,0.4526400529377703,-0.3754104030566721,-0.4979930407073232,-0.0111157965563852,-0.2347561358052502,0.513507830529462,1.3779147845570454,-0.6545650710529809,-0.7046108783544742,-0.5649585099686814,0.9416607724681852,-0.504937832674876,1.333138849518818,1.390788512159264,-0.1010152544622865,1.4130195944101551,1.30544650417217,0.6709988977185828,1.247401803806513,0.4180906482420571,-0.5578890374579172,0.4180906482420571,0.4145150250383716,0.1268613254036522,0.4199328490215983,-0.6359477800595359,0.5473318795783693,-2.618090427312782,1.02252539751266,1.377301389633072,2.0772449588859474,2.3551509192343945,-0.5176134057785946,1.5533212358926871,0.9861538529474144,-1.0361166997780047,0.3699896731530386,-0.4493865659000876,2.2092041819769563,2.687057823397027,2.195918143565676,1.3287552487370689,-0.3778869936243956,2.3949679767432723,1.681190957394114,1.4243041996464292,2.2664525336215853,3.0227273949613687,1.5950863094830965,1.0091681951143046,1.2924215402903034,-0.0055032506860974,2.279309711864564,-0.0263885090869257,-0.433011048210842,-0.2825426519677055,-0.2079230362486667,-0.6308615815861323,0.2851667405378694,-0.0040846353996418,0.5011699559118752,2.1048446157191365,-0.5523398570980358,-0.1365948457777169,1.1668196591947906,-0.2281857892713227,1.5773592674706516,-0.4503369712279342,0.181656781448793,-0.5907258671515986,1.1404193528318782,-0.7071036402876192,-0.471273169209515,-0.4406372527733674,2.3596776939519515,0.9196185772579882,-0.2063968879537193,0.1544510001542366,0.0195305339478883,-0.1767956821067766,-0.6651623304469073,2.2762918147335487,0.7455864969438639,-0.3317810206197654,1.1571004867714632,3.08090178997387,-0.7256247597089507,-0.1676803876984703,-1.2000044278718522,-3.637655870891014,0.1250554561258423,-0.3214841074360675,-0.2835748816950121,3.2477498365638766,3.5356268813586267,-0.2501593283565828,0.652256541930572,2.031858625152182,-0.3030457633656632,-0.2835748816950121,-0.2835748816950121,0.2800577979381055,0.3316282923139075,-0.1435992628787478,-0.1767956821067766,-0.101015254455221,-0.0742344806368388,1.5208637195556745,-0.3948080203988208,-0.1767956821067766,-0.2052290799318516,-0.101015254455221,2.031858625152182,-0.2540706746549266,-0.2540706746549266,-0.199532002897127,0.262784187477899,1.0764177039349414,-0.5432801752553075,-0.2966173619504273,-1.0274770440663206,-0.6902775901042241,-0.101015254455221,-0.4561245320378142,1.2890408482877918,-0.101015254455221,-0.101015254455221,-0.4025464901437672,-0.3890765377414685,-0.101015254455221,-0.3873915831529057,-0.3313012426364054,-0.3716329619084387,-0.4082908602798601,-0.101015254455221,-0.101015254455221,-0.1767956821067766,-0.1767956821067766,-0.1767956821067766,-0.3146102220792177,-0.318129103702299,-0.318129103702299,-0.3163727581225843,-0.1435992628787478,-0.1989769753883445,-0.2835748816950121,-0.1934826842541162,-0.1435992628787478,-0.101015254455221,-0.1360885371684969,-0.1767956821067766,-0.1985377926751482,-0.101015254455221,-1.694359661718558
indirubin-monoxime,0.0081899963489839,0.1876203904979584,-0.57167333920049,-0.6118488190753864,-0.6534018477146382,-0.4647498536514657,-0.5656104554186825,-0.6304388468507997,-0.5914544171323343,-0.6733957800810338,-0.4851816060116715,-0.5475362594119633,-0.4070087602929091,-0.476295371859349,-0.7581599604702343,-0.44840982771564,-0.2052290799318515,-0.8971671293028115,0.2104584495134634,-0.0453330080244218,-0.9213251382753512,-0.4985240610045516,1.2210431672355937,0.0854628209123122,-1.00494892407655,-0.6165472646792757,-0.1978518766866482,0.1841871200624393,0.7877043904905927,-1.5440028655413125,-0.3641518170023403,-0.5025106709911049,-0.5878218258720801,-0.1010152544624812,-0.7479714504659412,-0.7927967603807521,-0.7256059003949692,-0.5656470284199883,0.1835926395082668,-1.0227896494709638,0.1835926395082668,-0.0280106090043385,0.3670609922388609,-0.0233375030570228,0.7235387897689664,1.00842834354081,-0.1924660001229009,-0.5118570864024096,-0.6168251896077661,-0.1384829972590631,-0.5013440075597968,-0.5176134057785946,0.0535628012376788,-0.2371762431139351,1.1015556492376684,0.3699896731530386,0.9487049724557408,-0.7888454101816829,-0.0312045424652557,-0.5916463391990423,-0.690128695080493,-0.3778869936243956,-0.640034545508978,-0.72988290345403,-0.6203512432053784,-0.8995076817542147,-0.8223910367673727,-0.7974134097705441,-0.7346450224284796,1.403668072649986,-0.5762048456960428,1.064911583550428,0.0045484610077594,-0.433011048210842,-0.2825426519677055,0.4784492620711163,-0.8715617834151922,-0.2640614114132734,0.2142093711707242,0.5011699559118752,-0.7047709174526016,0.5237557599356913,-0.1365948457777169,-0.4470562745581135,-0.3179300344655747,-0.9703349702644836,-0.5252371593085198,0.8970425129624813,-0.5907258671515986,0.5573103473863021,0.2500864221176704,-0.471273169209515,-0.4406372527733674,-0.7951570574765467,-0.6985482041091484,-0.8137896810696428,-0.8990200894983161,0.819503271404489,-0.1767956821067766,0.9951173559751944,-0.4311427838151876,-0.8659477268523371,-0.3317810206197654,-0.254010790194594,-0.3737126193858554,0.2554212178095607,0.2120381016362958,1.3164422386306898,-0.256584256483938,-0.8841611290595309,-0.3214841074360675,-0.2835748816950121,-0.6101833026271526,-0.5467464249523649,-0.2501593283565828,0.0,2.031858625152182,-0.3030457633656632,-0.2835748816950121,-0.2835748816950121,-0.3038925041456038,-0.2487212192354307,-0.1435992628787478,-0.1767956821067766,-0.101015254455221,-0.0742344806368388,0.7364182221006423,-0.3948080203988208,-0.1767956821067766,-0.2052290799318516,-0.101015254455221,2.031858625152182,-0.2540706746549266,-0.2540706746549266,-0.199532002897127,-0.3503789166371986,0.2522853993597518,0.6141428068103475,-0.2966173619504273,1.1379584466540968,0.2901166683046738,-0.101015254455221,-0.4561245320378142,-0.7161338046043288,-0.101015254455221,-0.101015254455221,-0.4025464901437672,-0.3890765377414685,-0.101015254455221,-0.3873915831529057,-0.3313012426364054,-0.3716329619084387,-0.4082908602798601,-0.101015254455221,-0.101015254455221,-0.1767956821067766,-0.1767956821067766,-0.1767956821067766,4.089932887029831,-0.318129103702299,-0.318129103702299,-0.3163727581225843,-0.1435992628787478,-0.1989769753883445,-0.2835748816950121,-0.1934826842541162,-0.1435992628787478,-0.101015254455221,-0.1360885371684969,-0.1767956821067766,-0.1985377926751482,-0.101015254455221,0.694301211946373
5-fluorouracil,1.7432277709240382,-1.0286086523091638,-1.219834678819257,-1.3250399242163324,-1.3681785965739848,-1.2812218578990526,-1.3534030377067212,-1.4030298366801786,-1.316891906733923,-1.3823916116249024,-1.2871094771745788,-1.3342750504841654,-1.2337104695359928,-1.2916429656086394,-0.294983557412761,-0.1728322243545994,-0.2052290799318515,-1.2922287371165784,-0.6803039727332578,-1.0971690834640264,-0.9213251382753512,-0.5580670013774791,-0.733081080506632,-0.9407776442799152,-1.00494892407655,-1.2813620083106614,1.2222762152484654,1.110018368413391,0.5224763707926956,-1.5440028655413125,0.7128612028925486,-1.2620897829262454,-1.2656695535273843,-0.1010152544624812,-1.2244486482706771,-1.1984124628423107,-0.8331241180967444,-1.3362958924333566,0.0798900025229498,-1.3305391916911342,0.0798900025229498,0.3730986613836891,1.5076024429424426,0.2528676234535606,0.1130977601475251,1.4730760733057664,-0.9367621094924748,-1.4071628848858724,-1.2818171431972554,-0.4154489917771894,-0.6917770026794096,-0.5176134057785946,-0.6963164160898253,-0.8488412911446099,-1.0361166997780047,0.3699896731530386,-0.4493865659000876,-1.0029918096215855,-0.3709873381980411,-0.5916463391990423,-1.0939054838440054,-0.3778869936243956,-0.640034545508978,-0.72988290345403,-1.2337478760609206,-0.8995076817542147,-0.8223910367673727,-0.7974134097705441,0.1239835496443405,1.292421540290304,-0.0055032506860974,0.2455190977949136,-0.0263885090869257,0.7604579983924123,-0.2825426519677055,-1.0379793136659998,-1.3364368574466323,-0.838679802245949,-1.178621572506411,-1.0498191708048756,-0.9702468419198952,-1.3344016102443104,-0.1365948457777169,0.0820993061834681,-0.802034797891333,-0.9703349702644836,-0.8895126266173158,-0.2721952676367782,-0.5907258671515986,0.0762441085470942,0.0318054913420592,-0.471273169209515,-0.4406372527733674,-0.9348712539349676,-1.0253262513710033,-0.2167308587000478,-1.074684679060795,-0.7271376947142109,-0.1767956821067766,-0.6651623304469073,-0.5670113119321677,-0.0559149636020836,-0.3317810206197654,-0.0482729536686378,-0.8878769667612038,-0.728374818036656,-0.0920494950585901,-0.8991520802216957,-0.1240133541357719,-0.8841611290595309,-0.3214841074360675,-0.2835748816950121,-0.6101833026271526,-0.5467464249523649,-0.2501593283565828,0.652256541930572,4.4901567148424775,-0.3030457633656632,-0.2835748816950121,-0.2835748816950121,-0.8878428062293131,-0.829070730784769,-0.1435992628787478,-0.1767956821067766,-0.101015254455221,-0.7355962172195849,0.7364182221006423,-0.3948080203988208,-0.1767956821067766,-0.2052290799318516,-0.101015254455221,4.4901567148424775,-0.2540706746549266,-0.2540706746549266,-0.199532002897127,-0.3503789166371986,-0.5718469052154376,-0.5432801752553075,-0.2966173619504273,-1.0274770440663206,-0.6902775901042241,-0.101015254455221,-0.4561245320378142,-0.7161338046043288,-0.101015254455221,-0.101015254455221,0.9577830282731016,-0.3890765377414685,-0.101015254455221,-0.3873915831529057,-0.3313012426364054,-0.3716329619084387,-0.4082908602798601,-0.101015254455221,-0.101015254455221,-0.1767956821067766,-0.1767956821067766,-0.1767956821067766,-0.3146102220792177,-0.318129103702299,-0.318129103702299,-0.3163727581225843,-0.1435992628787478,-0.1989769753883445,-0.2835748816950121,-0.1934826842541162,-0.1435992628787478,-0.101015254455221,-0.1360885371684969,-0.1767956821067766,-0.1985377926751482,-0.101015254455221,0.0807057457685901
cytochalasin-b,-0.4319106816501286,0.1872764430892423,0.3534985887407139,0.4261311317753717,0.3868858525976995,0.39851757502226,0.5527247983047822,0.4663165175192004,0.6019314872387171,0.4929426622387411,0.7199359307082106,0.6347555002746208,0.7657184072288418,0.6803252852320044,0.2084044235520082,0.2305640662763045,-0.2052290799318515,-0.09732066346249,0.3221715514909893,0.5225730684857003,0.1705043321620067,-0.8322390965776666,1.58303236945245,0.3087496152700656,-0.6253347354250469,0.2974127523357153,0.0407296427584508,0.3303710013810108,0.6285675786718551,0.2092081644026909,-0.2092871997625528,0.3836649595998924,0.2702042691036528,-0.1010152544624809,0.3036428793272391,0.2388458249272426,-0.0866864938121344,0.4034989190321129,0.7837949450273152,0.0201392048740694,0.7837949450273152,0.4240918590234303,0.2399702944154451,0.4295257996797872,-0.3898560956168403,-0.0259665238279574,0.5654168836731797,0.4690011536201735,0.2972095370494519,-0.1384829972590631,-0.3109110124401841,0.6096335668059003,0.803442018565183,0.9861538529474144,0.0327194747298317,-0.7631037008781422,-0.4493865659000876,-0.3605526113018772,-0.0312045424652557,-0.4058087070147278,-0.690128695080493,0.9937028350863738,0.3716329619084387,0.8774996704447326,0.3565396906015963,-0.1602403296223694,-0.8223910367673727,-0.7974134097705441,0.0920766014109845,1.403668072649986,0.0225378058637935,-0.4705196232053437,-0.0263885090869257,-0.433011048210842,-0.2825426519677055,2.118011422682538,0.5146307710979832,-0.1532342330924388,-0.0470947673654967,0.5011699559118752,-0.0170113213717856,-0.5482274019586768,-0.1365948457777169,-0.4117213885754318,1.493361236588708,0.4461801187921711,-0.8895126266173158,1.173377657808692,-0.5907258671515986,-0.5174341374293645,-0.7071036402876192,-0.471273169209515,-0.4406372527733674,-0.1150533786580642,0.3886966490123233,1.6157814913940507,0.3165265053854375,1.363143898753763,-0.1767956821067766,-0.6651623304469073,-0.2187904414010635,-0.4567604810675109,-0.3317810206197654,0.0770664085772608,0.1952499288278144,-0.4386826886454731,-0.5974731627692775,0.5280313329237022,1.310952580711034,1.1091451649560835,-0.3214841074360675,-0.2835748816950121,0.3542999821706046,0.4738469016253829,-0.2501593283565828,-0.652256541930572,-0.4264394645381124,-0.3030457633656632,-0.2835748816950121,-0.2835748816950121,0.2800577979381055,0.3316282923139075,-0.1435992628787478,-0.1767956821067766,-0.101015254455221,-0.7355962172195849,-0.0480272753543897,-0.3948080203988208,-0.1767956821067766,-0.2052290799318516,-0.101015254455221,-0.4264394645381124,-0.2540706746549266,-0.2540706746549266,-0.199532002897127,0.262784187477899,0.2522853993597518,-0.5432801752553075,-0.2966173619504273,0.0552407012938881,-0.6902775901042241,-0.101015254455221,0.6613805714548306,-0.2148401413812986,-0.101015254455221,-0.101015254455221,-0.4025464901437672,-0.3890765377414685,-0.101015254455221,-0.3873915831529057,-0.3313012426364054,-0.3716329619084387,-0.4082908602798601,-0.101015254455221,-0.101015254455221,-0.1767956821067766,-0.1767956821067766,-0.1767956821067766,-0.3146102220792177,-0.318129103702299,-0.318129103702299,-0.3163727581225843,-0.1435992628787478,-0.1989769753883445,-0.2835748816950121,-0.1934826842541162,-0.1435992628787478,-0.101015254455221,-0.1360885371684969,-0.1767956821067766,-0.1985377926751482,-0.101015254455221,-0.0852813322370126
aphidicolin,-0.4773052613453808,-0.6562359080403315,-0.3153258619801526,-0.1562581801959993,-0.196798290376939,-0.3356229022172906,0.0401581688532047,-0.0363594006156984,0.5058972168698828,0.3990849579529393,1.1354846653034711,1.0424334484334332,1.4110499286334035,1.316793671912288,-0.2935240657821215,0.273793838102768,-0.2052290799318515,0.7115528515860751,-0.0136866956825905,1.8352716358453016,-0.9213251382753512,-0.8322390965776666,-0.9929305927208134,-0.0213678753219642,-1.00494892407655,-0.3400720366757426,-0.6664941470252361,-0.2543645238932744,-0.0079796686030975,1.845538459017094,1.5786951992786362,-0.3126158930073197,-0.4025964181692291,-0.1010152544624812,-0.32856013293913,-0.644511633074569,-0.6831008938816612,-0.2804357458732813,-0.3746042158094018,-0.5337787237779753,-0.3746042158094018,-1.7012221498234616,-0.3486536452220248,-1.6993648599927378,0.2142543577426025,0.5234188536636294,0.0729663456320447,-0.287472463886993,-0.3403343603598143,0.1384829972590631,-0.6917770026794096,3.991374484559385,-0.6963164160898253,1.5978189009780894,-1.0361166997780047,-0.7631037008781422,-1.1484323350780017,-0.57469901074178,0.3085782532675296,-0.7774839713833569,-0.690128695080493,5.108472321218682,-0.640034545508978,2.484882244343495,-0.2114201546350168,-0.15252955923589,-0.8223910367673727,-0.7974134097705441,-0.7346450224284796,-0.4851764772755721,-0.5762048456960428,-1.1593416674100017,-0.7760235783950403,-0.433011048210842,-0.2825426519677055,-0.4610632988576231,1.726919532267384,-0.883947241358395,0.3769626448599423,0.5011699559118752,-0.2115930880717716,-1.3344016102443104,-0.1365948457777169,-0.9762118552996952,2.4947587197066308,0.5905999660576459,-0.0111613158385525,-1.4745008087204146,-0.5907258671515986,-1.0495217595717563,-0.7071036402876192,-0.471273169209515,-0.4406372527733674,-0.1286243312440866,-1.0253262513710033,2.675714688373771,0.9372478352896272,-1.3741121092913426,-0.1767956821067766,-0.6651623304469073,-0.3913989286517171,-0.8659477268523371,-0.3317810206197654,-1.140092678541072,0.9267118833261376,-0.6091246796423304,0.8724540912057881,-0.8991520802216957,1.1122452119233464,0.1834318225281622,-0.3214841074360675,-0.2835748816950121,1.318783266968362,0.9841435649142568,-0.2501593283565828,-0.652256541930572,-0.4264394645381124,-0.3030457633656632,-0.2835748816950121,-0.2835748816950121,-0.8878428062293131,-0.829070730784769,-0.1435992628787478,-0.1767956821067766,-0.101015254455221,-0.7355962172195849,-0.8324727728094219,-0.3948080203988208,-0.1767956821067766,-0.2052290799318516,-0.101015254455221,-0.4264394645381124,-0.2540706746549266,-0.2540706746549266,-0.199532002897127,-0.3503789166371986,-0.5718469052154376,-0.5432801752553075,-0.2966173619504273,-1.0274770440663206,0.2901166683046738,-0.101015254455221,-0.4561245320378142,-0.7161338046043288,-0.101015254455221,-0.101015254455221,-0.4025464901437672,-0.3890765377414685,-0.101015254455221,-0.3873915831529057,-0.3313012426364054,-0.3716329619084387,-0.4082908602798601,-0.101015254455221,-0.101015254455221,-0.1767956821067766,-0.1767956821067766,-0.1767956821067766,-0.3146102220792177,-0.318129103702299,-0.318129103702299,-0.3163727581225843,-0.1435992628787478,-0.1989769753883445,-0.2835748816950121,-0.1934826842541162,-0.1435992628787478,-0.101015254455221,-0.1360885371684969,-0.1767956821067766,-0.1985377926751482,-0.101015254455221,0.7081392413404588
